function [y1] = NN1(x1)
%MYNEURALNETWORKFUNCTION neural network simulation function.
%
% Generated by Neural Network Toolbox function genFunction, 06-Mar-2016 18:23:31.
% 
% [y1] = myNeuralNetworkFunction(x1) takes these arguments:
%   x = 450xQ matrix, input #1
% and returns:
%   y = 7xQ matrix, output #1
% where Q is the number of samples.

%#ok<*RPMT0>

  % ===== NEURAL NETWORK CONSTANTS =====
  
  % Input 1
  x1_step1_remove = [1 2 3 4 5 6 7 8 9 10 11 12 13 14 15 16 17 18 19 20 21 22 23 24 25 26 27 28 29 30 31 32 33 34 59 60 61 62 63 89 90 91 119 120 121 149 150 151 179 180 181 209 210 211 239 240 241 269 270 271 299 300 301 328 329 330 331 357 358 359 360 361 362 363 364 365 366 367 368 373 374 375 376 379 380 381 382 383 384 385 386 387 388 389 390 391 392 393 394 395 396 397 398 399 400 401 402 403 404 405 406 407 408 409 410 411 412 413 414 415 416 417 418 419 420 421 422 423 424 425 426 427 428 429 430 431 432 433 434 435 436 437 438 439 440 441 442 443 444 445 446 447 448 449 450];
  x1_step1_keep = [35 36 37 38 39 40 41 42 43 44 45 46 47 48 49 50 51 52 53 54 55 56 57 58 64 65 66 67 68 69 70 71 72 73 74 75 76 77 78 79 80 81 82 83 84 85 86 87 88 92 93 94 95 96 97 98 99 100 101 102 103 104 105 106 107 108 109 110 111 112 113 114 115 116 117 118 122 123 124 125 126 127 128 129 130 131 132 133 134 135 136 137 138 139 140 141 142 143 144 145 146 147 148 152 153 154 155 156 157 158 159 160 161 162 163 164 165 166 167 168 169 170 171 172 173 174 175 176 177 178 182 183 184 185 186 187 188 189 190 191 192 193 194 195 196 197 198 199 200 201 202 203 204 205 206 207 208 212 213 214 215 216 217 218 219 220 221 222 223 224 225 226 227 228 229 230 231 232 233 234 235 236 237 238 242 243 244 245 246 247 248 249 250 251 252 253 254 255 256 257 258 259 260 261 262 263 264 265 266 267 268 272 273 274 275 276 277 278 279 280 281 282 283 284 285 286 287 288 289 290 291 292 293 294 295 296 297 298 302 303 304 305 306 307 308 309 310 311 312 313 314 315 316 317 318 319 320 321 322 323 324 325 326 327 332 333 334 335 336 337 338 339 340 341 342 343 344 345 346 347 348 349 350 351 352 353 354 355 356 369 370 371 372 377 378];
  x1_step2_xoffset = [0;0;0;0;0;0;0;0;0;0;0;0;0;0;0;0;0;0;0;0;0;0;0;0;0;0;0;0;0;0;0;0;0;0;0;0;0;0;0;0;0;0;0;0;0;0;0;0;0;0;0;0;0;0;0;0;0;0;0;0;0;0;0;0;0;0;0;0;0;0;0;0;0;0;0;0;0;0;0;0;0;0;0;0;0;0;0;0;0;0;0;0;0;0;0;0;0;0;0;0;0;0;0;0;0;0;0;0;0;0;0;0;0;0;0;0;0;0;0;0;0;0;0;0;0;0;0;0;0;0;0;0;0;0;0;0;0;0;0;0;0;0;0;0;0;0;0;0;0;0;0;0;0;0;0;0;0;0;0;0;0;0;0;0;0;0;0;0;0;0;0;0;0;0;0;0;0;0;0;0;0;0;0;0;0;0;0;0;0;0;0;0;0;0;0;0;0;0;0;0;0;0;0;0;0;0;0;0;0;0;0;0;0;0;0;0;0;0;0;0;0;0;0;0;0;0;0;0;0;0;0;0;0;0;0;0;0;0;0;0;0;0;0;0;0;0;0;0;0;0;0;0;0;0;0;0;0;0;0;0;0;0;0;0;0;0;0;0;0;0;0;0;0;0;0;0;0;0;0;0;0;0;0;0;0;0;0;0;0;0;0;0;0;0;0];
  x1_step2_gain = [2;2;2;2;2;2;2;2;2;2;2;2;2;2;2;2;2;2;2;2;2;2;2;2;2;2;2;2;2;2;2;2;2;2;2;2;2;2;2;2;2;2;2;2;2;2;2;2;2;2;2;2;2;2;2;2;2;2;2;2;2;2;2;2;2;2;2;2;2;2;2;2;2;2;2;2;2;2;2;2;2;2;2;2;2;2;2;2;2;2;2;2;2;2;2;2;2;2;2;2;2;2;2;2;2;2;2;2;2;2;2;2;2;2;2;2;2;2;2;2;2;2;2;2;2;2;2;2;2;2;2;2;2;2;2;2;2;2;2;2;2;2;2;2;2;2;2;2;2;2;2;2;2;2;2;2;2;2;2;2;2;2;2;2;2;2;2;2;2;2;2;2;2;2;2;2;2;2;2;2;2;2;2;2;2;2;2;2;2;2;2;2;2;2;2;2;2;2;2;2;2;2;2;2;2;2;2;2;2;2;2;2;2;2;2;2;2;2;2;2;2;2;2;2;2;2;2;2;2;2;2;2;2;2;2;2;2;2;2;2;2;2;2;2;2;2;2;2;2;2;2;2;2;2;2;2;2;2;2;2;2;2;2;2;2;2;2;2;2;2;2;2;2;2;2;2;2;2;2;2;2;2;2;2;2;2;2;2;2;2;2;2;2;2;2];
  x1_step2_ymin = -1;
  
  % Layer 1
  b1 = [1.4151889650168712;-1.347743812590338;-1.2973741718715737;-1.2372348327913198;1.1883561880099953;1.1271061520750794;-1.0615285925184412;-1.0173387719413682;0.93941062275182419;-0.8826379814080334;-0.84277604142502693;0.77358438909771976;0.73364250708894696;0.66253427134121379;-0.61929631538177843;-0.55327999099840675;0.48943092046950659;0.4320324403389656;-0.36620081627134787;0.3145592474956847;-0.26718277061493712;-0.20783972145707233;-0.14441469734435777;0.090720838686514663;-0.033887570636071659;-0.040518367227606752;-0.078176865505242304;0.14589263110586351;-0.19770919680025767;0.23408641969240532;-0.31832874247490395;-0.35968701582247703;0.43333760390576653;0.50230256020876995;0.5397935199971442;-0.60055286629567606;0.66577692992371063;-0.71766793997365508;-0.79470366546447424;-0.81719752946076851;-0.85176523814104543;0.95412159279208009;1.0021235682433418;-1.0560918402849455;1.1199115561222879;1.1775559238546334;-1.242339496351319;-1.2943807742574986;1.351933635913001;1.4232080968153455];
  IW1_1 = [-0.032347589096618917 0.0033683937401892275 0.082134305897686527 -0.018028157242526155 -0.089835973080851617 0.013284981120225019 0.012769419099272573 0.10259161830571756 -0.11825507372027935 0.10327355874823098 -0.085378180632156145 0.095028884551451059 -0.13168210966051247 0.049597835490953361 0.062959262583951611 -0.13101398270301101 0.00015914136078774117 0.035396972601685277 -0.025808275777052934 -0.05876446807579979 -0.1147434973671505 -0.10506626443945732 -0.1047094564789076 -0.024655633625803593 0.088863759292500802 0.026132077436788245 -0.020341642255333268 0.10284783763914883 0.012882147095445766 0.11435664609677559 0.081094934485996847 0.056513036871934076 -0.01672767429712823 -0.0090165429380728614 -0.067821351274974684 0.11483507344790764 0.097053622130703732 -0.094097511954401969 -0.10548006171930054 0.080919357111818621 -0.10700525713941186 -0.093650887875411648 -0.096656581841889772 0.02901702374595546 0.096355072514164058 -0.098133196873002745 0.11701366054963448 -0.098763716783415653 -0.077175547783630796 0.077463106446083951 -0.11285889595507467 0.12368232109848569 0.13311795341164601 0.031721330777462066 -0.15516577168874782 -0.017906861139486328 0.11779238051029854 0.14709743993899563 0.0017456546441918155 -0.04079999243902873 0.065010486031380862 -0.079641461718389775 0.14687582088279616 0.054669002421720285 -0.067323461344177715 -0.076991558249274131 0.11414399723051699 0.099262980628427713 -0.11343744442609187 -0.1077072628218901 0.10087195538642622 0.11201046278254397 0.12764034709653399 -0.11199594370978942 -0.020186566918176344 0.11500196667979583 -0.10941292951217949 -0.073287373249977347 -0.0041517664945703598 -0.010982122898655446 -0.049133096610520781 -0.15990596200424143 -0.029522008104405102 0.096592256216994118 -0.072638255669287652 -0.081475948489566227 -0.11411996819129507 0.013036661820061239 0.15021711659710402 0.12040142208639049 -0.050897371706416984 -0.064482917918714855 -0.10867381555303422 0.045418997784337826 -0.11227463498685009 -0.081828601397922113 0.038740276332186824 -0.10058067966945654 -0.066380310205585602 0.036077073044515864 -0.097762205908526606 -0.10745202704780692 -0.057497071432429943 -0.012001837818410573 0.017825836296209711 0.12823926535945049 -0.031740497632554071 -0.1039225763344159 -0.0082180566001811839 -0.080196035728404183 0.002877899382598849 0.028595671295806917 -0.048797857434848532 -0.065109320658427283 -0.08160151808592056 0.035523617195034621 0.11294764120125238 -0.10551839453434091 0.12272742206670662 0.076364878255509042 0.0098524561259440077 -0.028986925335782284 0.070929264775364056 -0.074658849192574595 -0.10143299283588394 0.10343770413328177 0.020155138867141376 0.09788760505633809 0.066827023268005353 0.016782010769628181 -0.029358740202587948 -0.04763525946932521 -0.16745963763390395 0.030112882386860221 -0.075261334995339713 -0.12311578397322923 -0.10973521229808689 0.06172144733915029 0.030330520306889371 0.01460404553133317 0.10566661410657176 0.0039525184492938837 -0.11314376829914687 0.071441162417522533 -0.11107137352565215 0.12530575788070275 -0.10138442849310503 0.10090472530789255 0.016155477051010544 0.070479141068875914 0.013778944534428674 -0.13046072338117204 0.090065517513027979 -0.10412240769471445 -0.036135763323205845 -0.00069437381820333438 -0.12567388792570566 0.035549166886471431 -0.057631088734611924 -0.15707329836734321 -0.085657984531903431 -0.14946067020818665 0.074956273465121806 0.075980892684598095 -0.085706017796309028 0.093967777517833917 -0.10519621978315043 0.099100312810838226 0.085315771920211059 -0.096756125332533666 -0.0057152895685584921 0.082750866634946019 -0.02214842539172128 0.06208631131481545 -0.0048834712478152626 -0.12048354502094538 -0.021344550339332469 -0.086824468860968049 -0.046228882563071894 -0.010428481216034248 -0.089012597339197752 0.087953198085532147 0.028479112045449083 0.061886404938178964 0.026376323270426157 0.009939339347701158 -0.15785703393652004 -0.13785717640168069 -0.12958277329501616 -0.070133380846838095 -0.10581408600449044 0.13077102377129662 -0.055237571970153845 -0.071651827522809325 -0.11536453583318045 0.078974634394910592 0.11589555822919298 -0.10204065577267074 -0.013810678044605767 0.055279628681591871 -0.1249216361928054 -0.0038226551950368412 0.05358870210068005 -0.026239725874788379 -0.095009975442569977 0.047844950559864707 0.059373325380910724 0.021162213922123582 -0.072720314602830211 -0.081868565471008792 0.10684171991309546 -0.019519483222297424 -0.16090195516736241 -0.054099660963513714 0.047656375745493057 0.033674790495099041 -0.0078113242918277101 -0.055640711418128014 0.10226072969614665 0.072294929392190302 -0.11332439345159627 0.07011221837570969 0.088309214328546479 -0.039744317031387609 -0.012444145669262122 -0.025624194379836832 -0.090235379692346615 0.002949806698730204 0.14676649885357029 -0.047070137823408895 0.1381462165625911 -0.081646018243356905 -0.10783895189585724 0.027331315271998974 0.040436032372792537 0.034483582101934439 -0.041319043227256165 0.028613576783789466 0.049301026051415849 0.064654844609774137 -0.074562835883075287 0.086260052307637308 -0.11240010717165261 -0.005189730114682144 -0.0090881281624962916 -0.089619707773370041 0.026251778976682672 0.11734690820781764 0.019769988979608306 -0.078172809330853674 -0.090735291369670096 0.13452363484523225 -0.010782251173689798 0.036796464028030912 -0.084179312546029825 -0.02326246859799222 -0.095480239232525063 -0.10431430499379582 -0.034299570402333418 0.051462791791179817 0.016021379102110853 -0.03148122350883463 0.10753837826723869 0.003553021779858459 -0.081271426416181555 0.11518721801651656 0.038763935847041381 0.075030366963667522 0.057980342849145924 0.080636979621696026 -0.060489369945166391 0.13110189269914022 0.012887466456569139 -0.012306732095089335 0.10937060500961218 -0.11684674694332757 -0.11998868166951689 -0.078593444141352081 -0.088790062319361263 -0.11722102319317952 0.1239843298898171 0.087867381293840419 0.10366395888988167 0.1340873058295047 0.14566632213652606 0.1171617375025768 -0.013841453399107459 0.10461578780584231 0.1370881890916445 -0.0079025109971054171 0.088132707508742664 0.081084507848482659 0.022644989455889459 -0.030133849076600418 0.1337891753070472;0.071659510041021279 -0.07090886564846155 -0.13716886456858016 -0.00060429793106717903 0.05577235861091713 -0.091779148514673295 -0.08451574870745257 0.10870870019404318 -0.04529875783706707 -0.048416505593531667 -0.077395672155715745 -0.055875451883255725 0.02513981054886134 0.052006644515918778 0.10065352755154042 -0.095655270879456855 -0.13475664604821502 -0.14452135788191808 -0.01437133607439052 -0.12042869566393159 0.023857497118810606 -0.093676283733290233 -0.067786263368857319 -0.064642893397149959 0.068710834303242901 0.039366572650221643 -0.085081554416204755 -0.067065528047684481 0.041954966712800412 -0.10735903118424131 -0.03723339149988928 0.047016268347344937 0.064554467677457872 -0.12899770376353489 -0.013553891608482492 -0.05517578149365944 0.051801531317350095 0.044809616526259324 -0.028455397729483599 -0.1182373008455351 -0.077856754745425708 0.10065165622075806 -0.04851402545530558 -0.06164155900836487 0.093485178675860203 0.049033666417065198 0.14080057727689513 0.044714303784359324 -0.049404168714134514 -0.00071516784034611936 -0.042303502734889926 -0.10603449754450127 -0.016878092518614135 -0.10795872618087084 -0.13876597268727248 0.036436633119551615 -0.10769751679159259 -0.10768481443704518 -0.049010906831347657 0.074159896755928698 -0.1039323357364824 -0.059546692798823533 0.0087785093525846649 -0.13910051146863908 0.065478158153113808 0.10134861637770018 0.0081734367131167038 -0.031512731096410833 0.11872106235302235 -0.11976804359895936 0.080009609859038419 -0.067450056674153297 -0.014047753741305678 -0.15218012782339849 0.068407340341740314 -0.0826259684036003 -0.11291420039680243 -0.02339208990667694 -0.048226298079138738 -0.051539972003938547 -0.0088715567717242132 0.053079745975635535 0.0022460933352842858 -0.12793914653008789 -0.047167568644217922 0.049678412041979425 -0.038488421583717604 0.089396480420132374 -0.037488725866278633 0.085387822252028484 0.021032677972227409 0.048398784132468051 0.053947944851004286 -0.012796471320911728 -0.11370841136468635 -0.12588007881065658 -0.04206646230074252 -0.0078461775317937108 -0.016413456689305876 -0.13089731302457494 -0.1444091196345807 0.041231028532925679 -0.053851436152165824 -0.084595305579571234 0.057884191924444627 -0.12018411558983411 0.072055747858969316 0.026236549741623878 -0.043201841083666689 -0.079748224695065845 0.06371968870875834 0.12800268492789205 0.037834799602701148 -0.066604748464937122 0.12935978766752768 0.079122022525838956 0.092320441221913699 0.13994749964811265 0.037396410586186514 0.13660297897899598 0.1000289788774046 -0.13714248080488142 0.060072049436735726 0.0058549674465540351 -0.1093791155316307 0.0026452112075453461 -0.070052759615793256 0.042719696780668205 -0.10324062369950436 0.050768078221740787 -0.044621171239201514 -0.053424501911720303 -0.033001975845459657 0.030265544344830614 -0.098538179792907465 -0.1076077124720652 0.033475680651595091 0.11226286682023569 -0.059344662347082286 -0.13678418390712468 0.094981946125524144 -0.070133015855509503 -0.11319001357266635 0.10228431513263152 -0.13564909347532153 -0.13463867527563766 -0.056662433696599235 -0.082432872318063885 -0.018920525069741706 -0.043934692053737179 0.11414009130199562 0.070317052155909013 0.11225025950575319 -0.12086106765487176 0.064203655476457053 -0.0019175774647497859 -0.092240298839193727 -0.14253577333726472 0.1158030056218281 -0.045654572883503171 0.030539560864724185 0.044787547975180302 -0.088161490347820365 -0.0063646806361076485 -0.10000120705747929 0.10695701945387666 0.10410077035973551 0.13132770435736194 0.12656368623598235 0.14097268115156156 -0.10560354470552878 -0.027628311107625765 0.12803623370107858 0.12516320889811464 -0.055945167690684139 -0.13383133006792641 -0.11710405405982013 0.041104793716414047 0.034654166071397451 -0.13084726942032704 -0.05819697554617774 -0.070104355725199019 -0.10536207835944142 0.054525235620029484 0.08573338347805376 -0.13788493977275496 0.1125578406948284 0.076161843284016137 -0.14012975274446191 0.017238862221299618 -0.0024838799947035761 0.010230639103159647 0.0024009192102442123 0.067499568426958881 -0.13235564190923249 0.10953306284896953 -0.033391194116577268 0.046754867337313356 0.00022222779695709296 -0.043623999115167816 -0.072300395674658388 0.016023894271560309 0.010664185368911231 0.092278432282897851 0.14840343076823409 -0.029835595013254976 0.092222091308017035 0.074215514551398243 -0.11296145922420975 -0.10421404810173086 0.085492071667930283 0.093260427818682948 0.098081036645503036 -0.0049394246840741693 0.0077545334290152531 -0.027780288687459662 0.024347237727617464 0.09565002024742339 -0.06309182412477693 -0.10535592036410009 0.11452618584236474 0.0091972139133558208 -0.12392563809281046 -0.11181393478006968 0.059508827427341433 0.067332807424758931 -0.0079462859126449258 0.10787864448559251 -0.10273663940850318 -0.082428539488755309 0.095700086832117309 0.075386027500696839 0.069605141830468162 0.10700905483032161 -0.096232960541549548 -0.12809695070083368 -0.08716310415354582 0.06256892003884594 -0.013984348850841689 -0.14640853698537523 0.068381407446605091 0.0866763192784053 0.12799797784687569 0.10868451284710653 0.012663974757807773 0.014912816367866382 -0.0095143316321784077 -0.096257160283773624 -0.025511504005908028 0.065639515291356518 -0.065603485712648707 0.090658584199571485 0.038463690533459813 0.084838920358121461 -0.12381642375760038 -0.035242987806533781 0.025332063002108288 0.0031774018543046061 0.11609748595782882 0.077283728052504497 0.029751488261011153 -0.004589458436776995 0.047474923587866709 -0.051074214275619145 0.059588888829766554 -0.11250705368607086 0.15494303917659824 0.10375734946887888 0.13930883832779029 0.12180389971736104 0.12956218180523149 0.06551503377904791 0.13890882732239862 -0.079869407578913809 -0.040750255129504934 -0.014017165895421527 -0.073859917911429693 -0.084622446318680739 -0.078284630795836557 0.054107447458901954 0.14537354729739024 0.11877532933748057 -0.05511123457393264 -0.032094635217685963 0.072945297337426093 0.08392760071859226 0.10063463578413864 0.039051986302598284 0.086119210433173429 -0.059260076037013408 0.043362363803511376 0.014103996831188783 0.022661523686615444 0.030225562683796999 0.051374249944152926;0.091677200774307577 0.022828506483698795 0.083411642809685868 -0.084422432922276275 0.030774992429441175 0.11468218887672102 -0.14311727191506488 0.12207726291231782 0.023711495082629607 -0.11480986469139171 0.092678413676453492 0.082432256288515138 0.087926889250105278 -0.025777909943160725 -0.14712017512637229 0.0841292948370502 -0.079049869887863208 -0.096988251903817893 0.13620578216856336 0.046860035640417977 0.035810392083501161 0.097689790666946455 0.01072181852212487 0.068378822068251591 -0.044112837528980348 -0.11005330026654395 -0.0010750115364750151 0.044587382212755364 0.038242074793116788 0.028758090073181596 0.091847962683695356 0.10551468614749054 0.090838811706421344 -0.061508377252604371 -0.11615709856609989 -0.088382218960450662 0.056014364944494119 0.03672339377907391 -0.076458253819917152 0.058042668000706635 -0.042610756155166837 -0.14592019689441618 0.099395785471177195 -0.089185767794639326 0.10893204212944915 -0.035377965207097899 0.015462572593698723 0.0067705725411327383 -0.021145146344782182 0.13452520511864555 -0.099392385739475064 0.022779689020966352 -0.085165371835075859 0.10134217748513108 -0.041517885645543234 -0.073874952928006887 -0.061683729741104788 -0.018506087496413574 -0.1251350325899673 -0.016857649295189396 0.034149946310850034 -0.076616081170656769 -0.029437203116539728 -0.14993926421174605 -0.13390950929498871 -0.064967101095368268 0.0037732273204064575 0.0044839494416213186 0.0011030704671982226 0.0044250035040000121 -0.097755617960266855 0.012934679345347037 -0.059216364250252035 0.06153561655188091 -0.028651055046539281 -0.14588746190538282 0.095249783275025063 -0.077951326363923643 0.072382647856200202 0.017259706142993568 -0.1593515768120336 -0.059034989899817855 -0.035598296879305158 -0.032712927180383607 -0.061295857326310606 -0.054601108154085302 -0.040373049028071532 0.081840188081163973 -0.0054866593667347629 0.08367665176911443 -0.023927415781236017 -0.1344597798549593 0.052447396345449822 -0.0035207696408547005 -0.036404484594868489 -0.026936567064173772 0.05530585377766109 -0.084093856147901422 0.12193011959280607 -0.1866609355795508 0.035364855498450642 -0.12072577437326654 -0.14549717001589349 -0.033844995273875793 0.13545618155483818 -0.092201083938875203 0.12016929841596724 0.08496627806461704 -0.0038474006003970701 -0.072242143943419199 -0.055422452017744026 -0.11855296510514973 0.071270382175151775 -0.1229134622107846 -0.13939654165210341 0.020372585261687667 0.037467112861139976 -0.070874134891758422 0.037481726402297098 -0.029316332125999364 0.031255843336250852 0.033252074013437972 -0.032620057591983137 -0.12398140706341225 -0.12642414415758116 0.10242103373732953 0.058394425853036613 -0.1480601552777803 -0.079828572039463974 0.13831489700495356 -0.06807962315598573 -0.11249045140705025 0.039062484248219669 0.041212001615531645 -0.00068925255402142564 -0.032852773727219023 0.043549771531499415 0.060570875360522809 0.0025682259586142049 0.069363773540615278 0.06710646743229691 0.10211754112335934 0.12127583629708687 -0.11305322134254474 -0.1435605894135715 -0.091606608929739611 0.0089138395941511794 0.094107881283226211 -0.079631807800737753 0.096437426796124368 0.075799481651895206 -0.019400694743280565 0.001871157634458625 0.0054227453006599705 -0.20751426366572764 -0.064166374357140774 0.013612002254634332 0.0010413410024761919 0.012373460728471571 -0.10876622342912835 0.018450200240108346 -0.078661208540592401 -0.026391098924616777 0.12303528171582628 0.023513069252321033 0.03096491003838496 0.097872078092656245 0.090409481171461803 -0.11352051918408387 0.12241357045933272 -0.14532951470718591 -0.13835980165023337 0.121189713376867 0.090123987790465016 0.092277545922935411 0.05740998467913986 0.042216873345170242 -0.070055740447493048 0.063642478097829497 -0.18587148054074368 -0.023165253523337596 -0.18206850914959374 -0.098334367928030977 -0.09545145412033601 0.10316468496544183 -0.14717474327665667 -0.001052309047170926 0.07873114613343421 -0.060852076121015931 -0.13932648868522976 0.077189589095424879 -0.024191391282373815 -0.040567924657037388 -0.034985615607783793 -0.087241260844645813 -0.05291437026933854 0.085815305943170328 -0.090438489443596073 -0.003238694020257735 0.051418695421009568 0.10973755189278686 -0.051635932290030814 0.084670165340718959 -0.12730456799662987 0.13274859167432673 0.061950649201879676 -0.17844945265048129 -0.028174620097021263 0.0019459555202652522 0.043003372469588533 -0.10801163214250932 -0.12254557891532386 0.12189243719370323 -0.037213106721481398 -0.12104592191402415 -0.066681333818486788 -0.14046699876955657 0.13050772571965108 -0.11848035561781775 -0.052257200723494331 0.014374502816965104 -0.072648609377996373 -0.044851351365845657 -0.056340937912858401 -0.084721734044903477 -0.12763672073082594 -0.058418642205346524 -0.084386120258036851 -0.063829582973918469 0.0024183793810785966 -0.12377734366862171 0.080972782873123789 -0.16737732516636483 -0.098155612729697389 -0.11883846774772097 0.099111824301562665 -0.1187452163585814 -0.0055114756073864624 0.099263390214318251 0.048794630866550795 -0.08424642480379374 0.092003327354783448 -0.11416612110835159 -0.11854142039365136 0.060669418308892581 0.11637190619808042 -0.055542003616729285 0.089135025570207596 0.015149544392754722 -0.11761105804783227 0.11662421307068063 -0.06849849353524752 0.10291872745501128 -0.075275603806033056 -0.0031355342916990193 -0.11984705017388983 -0.1540302896515264 0.008092335570189426 -0.093806060106533112 0.089256781078811992 -0.082757784326400963 -0.1179478380959196 -0.13187945682264485 -0.080495129786518807 -0.056406513467675154 -0.027497867983534079 0.03292409216656552 -0.0039894969298200512 -0.023814196474971117 0.072482760056491707 0.09456917695394422 0.066536846812452088 -0.10333639414804881 0.056957895784550586 -0.011873538316684555 -0.050659393268806432 -0.026569291485373594 -0.028183871603368379 -0.026323858029112236 -0.1055677495290364 0.12191455712943985 -0.003832352330486035 0.03798644749529461 0.033556582026314806 -0.10036068197512923 0.084171712402413792 0.006631472449964107 -0.020141647755393205 0.042838681463534728 -0.12365768490702195 0.1148864136653882 0.061002263096809381 0.011367913979941816 0.10045987319709861 -0.0064004544616727554;0.062252531647926677 0.03717288376963987 -0.042417840008684836 0.053696402997075024 -0.12047521573751513 0.10903116140194891 -0.081620964476687694 0.12229959840819526 -0.10769734799432196 -0.063674592428211635 0.057191943260860197 0.061830445523763773 -0.1401085436484138 -0.14944273338723615 0.089441012953112214 0.0060566779693530448 0.057608972399700052 -0.04308147098692551 0.05505311646525448 0.10802564182982077 -0.093371010532933382 0.030477847373699012 -0.06433465965465443 0.10255742136409034 -0.0064955689167800973 -0.084407278049565576 0.1204938310862675 -0.14041388081923845 -0.078028262275101345 -0.098881535978291191 -0.08639648212980082 -0.036567243958975836 0.10542477712802654 -0.11354004198375921 0.0078807772049107275 0.10546875045842347 -0.036916094035251167 0.14003218789605745 -0.020234751158416664 0.12392506815611594 0.10162725030289596 -0.080361146264099126 0.042856150737233749 0.1054670121579758 -0.0075839702835188774 0.020931242403256972 0.040577880757531902 0.086304328772172215 0.023400574258990343 -0.006190023043327636 0.1076952394376692 0.060757882734442305 -0.14397071793665581 0.056403597940789155 0.085912855546902145 0.12794231619891208 -0.11627594730295795 0.010975658361645419 -0.11646143111209979 -0.0066184724100509648 -0.034018712228262506 -0.088953896097991564 -0.13073348210975386 -0.12846304898986138 0.13884534149517538 -0.026968151316272108 -0.066245794214752338 -0.066421255131688936 -0.092685309514152076 -0.058554999374955639 -0.019406481207965436 -0.021154789262521154 0.12231302630122157 0.089688950974421339 -0.067798692718194331 0.028158131609828229 -0.074789605624528285 0.059664026864397153 0.039116454739161595 0.072662509409647233 -0.12896934220161874 0.084943139167414985 0.01176283047027391 0.080733908547794067 -0.043677191445182 0.090853345578763428 0.095032392766986024 -0.11055080010181423 0.063987007912260987 0.097439594159075937 -0.022814034331406198 -0.013403838037343978 0.059640373828851068 0.12120147938787862 0.0034063519924501301 -0.010347507609786488 0.01664831744180786 -0.0017588520020874005 0.1297753006498521 -0.0405739420928991 0.12502946179276517 0.077141822751446987 0.16200315276751914 0.078188030667172947 -0.14680227746697699 -0.016192344961667614 -0.052086723786563476 0.094604550948712354 -0.13656731689470258 -0.10096889067915089 0.089208798228045755 0.11180437732253534 -0.0038210993074810108 0.041400256237472212 0.013432983563116346 0.04814513274189703 0.088789124000841158 -0.13864446830578392 0.024488042802891002 -0.0085160484368504916 -0.10685455827099302 0.0068237412016357224 -0.097794039001262462 0.14018088652726507 -0.010411643769676441 -0.06327247789898291 0.12994299522127223 0.12370345319390659 0.15221149863333719 0.13481277320920931 0.020274728310507712 0.11884855116858536 0.068169705246967346 -0.030362199463317051 -0.0042234605047825318 0.11347459693253435 0.052146876640261415 0.017089936471298719 0.12881699518219833 0.093274680050605893 0.056087851947992207 0.0015143391201382858 0.016557648808062691 -0.026670862667916132 -0.067132143482841855 0.048296756273831697 -0.099207050309922454 -0.0098661599979232781 -0.14302218710248332 -0.020761547864920942 0.063285623872555596 0.073967746744285509 0.046263923829315899 -0.061275742952686486 -0.054745634667681224 -0.097292410617615857 0.097367033315657325 0.033088760768031543 -0.0013824542365109087 0.058379261611826501 0.12634075193165034 -0.01490389940918321 -0.08932570819039444 0.084179903444471904 0.023251428504560263 -0.14814151921971638 0.10255582686178129 -0.035584298528750974 0.097870067852659032 0.07510516103246534 0.10868651435266641 0.12457942815062471 0.059630999050808937 -0.02042085962728617 -0.05125321309433644 0.11447214344341114 -0.10516125907570552 -0.094944059762166064 0.0056091105194138215 0.14004623842193109 0.059662337160220562 0.055853170436225147 -0.0024912597900917906 0.11988908322702507 -0.0036188607195108882 0.077537440645152236 0.1268225600229092 0.083426339339859656 0.05239195278196359 -0.029293101744668402 0.037401182971822024 0.032870310374158447 -0.087404552181879647 -0.14512493840070112 0.014849941123188463 0.056638342676531991 0.12044148805160219 -0.10965678157551163 -0.019440917565164095 0.081837463317537454 -0.012299718205670298 -0.097583064494832131 -0.0031967090849334186 0.10194637901240053 -0.11919655385707678 -0.009770953402723815 0.004215128080909205 0.087841490939262787 -0.03697331244056868 -0.0337808804601002 -0.080304316484593588 -0.156836822389578 -0.042741958837935828 0.067205754719672078 -0.026826203872685458 -0.068301467368518567 -0.067299498328716692 -0.056358145355709426 -0.030808691606201748 -0.0012034075848200633 -0.11077066210978768 0.024496485162317526 -0.09073469758269484 -0.080724755853599728 -0.029278683821433581 0.065333736094438238 0.01169524959593385 0.018509175871968812 -0.09295989179192006 0.032290829736399629 0.09516726268169623 -0.059221533797377025 -0.10466861513581686 0.026896676740886565 0.090581701557943858 -0.083260924445458129 0.0096155153604184466 -0.13605520210505748 -0.021570961504101996 0.081420658921817574 -0.15406919248286705 -0.12048179324990954 0.068354778758911938 0.023846155339911981 -0.065338816559802046 -0.022736608676881081 -0.070525360128193701 0.041398903492592259 0.015286597105597283 0.087637045214852285 -0.015681885052156255 -0.13408073786973554 -0.07007297433706712 -0.1094849635125589 -0.10218762553328813 0.10154024133011282 -0.057416234144235787 0.081295110588869068 0.13642328678208251 0.054071615099782297 -0.033531876937380065 0.01387658332277327 0.15137499349953074 -0.11015337562046647 -0.0017832944027758146 0.011971872352079601 0.094854873220265715 0.017833386762865371 0.16158166178210231 -0.049918539141071798 0.14215278454375677 0.12672209240961835 0.12669128124112994 0.11401684989286662 -0.057759357430765379 -0.072618455082233829 0.04614591152266679 -0.10384043206536467 -0.024194116710871887 0.035615765560869914 0.15116057961440052 0.015847112598704787 0.13068369327599877 -0.10643526136344721 0.1244608070662729 0.12690412912124596 0.029907967989261795 -0.089093343260186364 -0.073451897254955073 0.10577823398690012 -0.035738101173715738 -0.065703710781489524 0.0013386726108547201 0.046732466633313263 -0.020581207228705333;-0.056675434766974439 -0.051546001225779903 0.14008122597958395 -0.045552926398005747 -0.0051223791456562508 0.011943435949347544 0.09632222331210305 -0.021086162044276532 0.061885699182895472 -0.081514863356193859 -0.075418486781720098 -0.039233811685550665 -0.12774055441619242 0.13497537604425816 0.11189971682441088 -0.063032116883654413 0.049029312700354995 -0.066485833862802282 0.14570188568544606 0.10734922414018859 0.06660035397410291 -0.040524059095901274 0.056454723475926623 -0.059036047311200754 0.045776898508907628 0.040984080173616641 -0.062036864462562721 -0.091871227944244502 0.058453833295261999 -0.016852614614200262 0.11595442249942595 -0.00056818503469375061 0.13890356618433317 0.038375510132144214 0.056449726245279504 0.091293319432346087 0.12130132353167467 0.13587655493276982 0.12271992915144958 0.025725529759733252 -0.023474625715758604 -0.09017555203358707 -0.065076064130596162 0.11002863589705514 -0.010962504974575567 -0.044222581007006101 -0.090396716411597564 -0.11183025638617916 -0.010088104870728682 -0.031289009805640242 -0.095835321293647469 -0.060046642187704273 0.040113328258248836 -0.017544413425377266 0.031529883308230429 0.056984389206507759 -0.079836485158079243 -0.093911220103540888 -0.12936609219618503 -0.096198484830134087 0.058342758484208765 0.0092361905808004477 0.097688176319999806 -0.11503346359239652 0.083575127106050473 0.12170335511345071 0.0067710346166136122 0.036534975625216647 0.021462201901075281 -0.068692267545655605 0.10760739087501633 -0.089497446316395723 0.10308657985833555 0.19201280153779773 0.22163107830380022 0.016423606693700833 -0.036299624249516584 -0.12981856832288843 0.0003862224074690086 0.03696605024379454 -0.11273365800644877 -0.13325692691649338 -0.092690289003068083 0.064457623283093859 0.12288270374603258 0.12632317836617982 0.11894848213794437 0.030994733453929665 -0.025657756444648402 -0.042583191798079817 0.13448728674745791 -0.095247427761245507 -0.021169710211741383 -0.015121631036743679 -0.076578179373364738 -0.13485682820720438 -0.13986162658279774 0.0046202874415933234 0.0079671926340545984 0.20228302405731005 -0.057011447366664629 0.18811085800784144 -0.052412284888465846 0.12619441144566082 -0.069796042320365112 0.096337968460238746 -0.023552782729296916 0.011834311098010794 -0.056739563324108719 0.026110151841256566 0.09596550716175152 0.0047757234276974798 0.058672856026506029 0.014435304934446587 0.1446234579987383 0.098397341601968613 -0.11767505107372514 0.073483379468229124 -0.11753528464277829 0.041079799614797172 0.13183220691401851 -0.021511654112243695 -0.12969804732536863 -0.0096895073005615878 -0.082921686620275936 -0.11008699257056651 0.061097590971635363 -0.038962910924110077 -0.14190593610778196 -0.11352310255680491 0.053729346131976594 -0.0083050831564078411 -0.16193004826071764 -0.004205400874417356 -0.0093496790097721862 -0.016271590701430399 -0.045522728287083883 0.13268288637990858 0.058531036888406704 -0.068505930376280486 0.013939251101552532 0.071656570116319859 0.1066102516151046 -0.051991958003360039 -0.070560632536694437 0.13962494557070496 -0.054398174868476826 -0.079647870789840328 -0.12358439252337572 0.027533981573161885 0.11135230270317761 0.017730634877918986 0.20911646664906111 0.084892262723871847 0.13568184616328091 0.029635359787194924 0.061059940258953872 -0.1151902896182446 -0.093333719091726303 -0.059151308280341 -0.079766112468137099 -0.1934930782251936 0.047435709188323932 0.027846345241041872 0.047489329356785695 -0.069285294206044012 -0.11021121052169446 0.00844247054781966 0.10431855536383326 0.041254375135202151 -0.086842904939851584 5.7918056232097764e-05 -0.033867826825533631 -0.018565564170099001 0.13765345112840052 0.022746032124874391 -0.068379872555200019 -0.032381393910332845 -0.066660113631778192 0.055855056058880054 0.14610287231302413 -0.040680963417498606 -0.14242261556090094 -0.022921368461312104 -0.055364071212623357 0.0047272087112597587 0.051722440410959199 -0.094683706271610574 0.13325591750755891 -0.040707453769978814 -0.036754520051690123 -0.075443251026982086 -0.02387692011898682 0.049293759463770681 0.082615719357299541 -0.0026247887756138798 0.12722356849715816 0.041939601061083555 0.094730875389226463 0.062485199840062365 -0.0018657237741890817 -0.098924594383029252 -0.078606373383738451 -0.11313711178026969 -0.00483785482326155 0.014289186539943332 0.17919866377131205 0.12271833361155975 0.059800238577680999 -0.13518011520459927 -0.1317267681892966 0.020124654761861364 -0.14249323922833948 -0.098693243737529107 0.01483191760048075 0.012041511089149306 0.0021721397672168057 -0.030974603940253052 -0.091915398194541573 -0.04479697570205262 -0.050823960845475427 0.1178949983954059 -0.058451090522948251 0.010317761889274907 -0.052994831410198846 -0.12347433533880535 0.080435294064073765 -0.04798405641158799 0.083601181293709761 -0.12523292136182818 0.12257713719051766 -0.068173769883301191 0.098115079654712001 0.16318243292553361 -0.101248451765623 -0.090785511561329787 -0.12934988700389397 0.11814720379543332 0.098432065425918397 -0.11268797094855669 -0.15590430826686627 0.061254495658614162 0.022860520493540874 0.10391903677842129 -0.029915614458935244 0.0067628362600994441 0.098974891390423606 -0.10520831668627791 -0.094679138728002279 0.080929246858716455 -0.074233121404396182 -0.066777546783183872 -0.044500175457355996 -0.11418062501042735 -0.097004652671993166 -0.071438009057432958 0.0038868251265143853 0.032013621028332453 -0.066530064262485339 -0.078076017305160311 0.094406451840635786 0.05878394654076196 0.023935488599643253 -0.074761617599660615 -0.00018473769180852535 -0.13928629956204053 -0.054080616612615234 0.069151545313767951 -0.0024890774165644445 -0.10091659885768785 -0.067171189456031372 -0.13236940330637234 -0.062658778838018764 -0.013027791618864547 -0.14175717107984376 0.059324248915622699 -0.075079046718381393 0.055627938710655925 0.11247828237090707 0.11094031179766087 -0.094986329369148553 0.11339252285908452 -0.12127303862971726 0.097720596224721276 -0.056672992772046925 0.096903187756514339 0.047204994558459272 -0.11013577537762713 0.11185527275373271 -0.017477247228875524 -0.06991940298925528 0.055294637266248794 0.11003600873501705 0.065892583563753757 -0.059794071948714611;-0.0093653894171029425 0.092444115070679622 0.13087008465271641 -0.10657390577356954 0.032969491850176218 0.039847759403837259 0.091599438046642015 0.026869968581116281 0.0084382722632388475 -0.086209043520224654 0.055722806983801672 0.10670324544105315 -0.054137493936843854 0.10013793373299726 0.01273369042912627 0.12642835100401106 0.088667096677825435 0.075277126287427373 -0.078095016979808959 -0.093630177102845519 -0.098466218094150265 -0.068165581229784847 0.0021680602535629847 0.0036546089014789069 0.0010478643274790937 -0.06702561150196068 0.068041422501138496 0.083605014544814851 -0.10845649965399121 -0.0030850095387934444 -0.083390860392310445 -0.11907121564060025 -0.11275032614303043 -0.092962117101896474 0.08469898766151801 -0.082208983944555461 -0.002201643723534681 -0.043786759131549724 -0.076102026121162542 -0.029425117514070422 -0.12064908257981662 -0.062032519080800215 -0.1309390523709556 0.13635995529534858 0.12902718422535331 0.14262161893777278 0.097970814696936109 0.12345921310877041 0.08286374162595625 0.12908525840229448 -0.083558992344164473 -0.022031472876850328 -0.1402274549588077 0.0014099975713364955 0.10468888440052719 -0.1239172947807935 0.01418714908922291 0.02283799348927798 0.06509555211942876 0.077257455701389852 -0.093305070958815226 -0.066832697002416785 0.025806063237872087 -0.13521644800140264 0.11921600797362732 -0.044857298152702563 0.11842387491528197 0.097321016112639464 0.034567870230830647 -0.14900779106395345 0.011525895178507252 -0.056559976073476036 -0.014629557316540202 0.11176804789287395 -0.0002155488417377358 -0.13019223186022444 -0.11674401168863002 -0.0094941569664949762 0.072619897617526519 0.034801428490494793 0.1206877449345501 0.11128807199006967 0.10009879630853717 0.031704043419828472 -0.1073258292216927 0.053732563784714207 -0.084484516861761214 0.062440070435386408 0.10127125389197963 -0.13774037881320578 0.062657383687504994 -0.011389701975918756 0.091479795084821014 -0.13001379805867527 -0.049003572698158013 -0.083196334708873304 -0.12559728369888037 -0.11162561560427758 -0.0085223132793962268 0.11391967511446056 -0.066595402758174535 -0.1337542001245387 0.056223212400036485 -0.067310239290428897 0.060065701935076807 -0.045488615783306104 -0.130421470151416 -0.084519046280307847 -0.039623976422930487 0.012508616507996811 -0.050878522241850029 -0.042611852671495393 -0.049460950476307677 0.053924418164796553 -0.088128929858645288 -0.074017873020803385 0.028457537345024621 -0.036959142053728557 0.051970373385176967 0.12137014805096336 -0.14086555899227088 0.066325736223871584 -0.043450413871688964 -0.071247546855779095 -0.068413725191909885 0.034310512705568952 -0.11544524232429659 0.058170759875682383 0.086310607760056501 -0.097383822350051275 0.037316823562589294 0.0767897993999649 0.1207890034099271 -0.053531092025538685 0.10807889862869917 0.12341194718790434 0.018344618114903639 -0.035016069364996537 -0.023804864953688273 -0.010505202635147263 0.11676629776451769 -0.022881479151280231 -0.029635209657835563 0.10475419006174913 -0.051212513185619618 0.024025353454953918 -0.070287693806401513 -0.059634164978490528 -0.058809236011115373 -0.054183488378225557 0.071806159101757416 0.055412414225408699 -0.075507836333248077 -0.070299348717463392 -0.124541056104293 -0.087166267214642226 -0.02564736896111746 -0.064954790235807192 0.0061501360155071932 -0.12065264897632981 0.090411076323240441 0.12474359246976617 0.044057697556285823 0.012917134871797166 -0.11680003542556334 -0.11982468206643775 -0.040132405048767666 0.045324848029533668 -0.053075868581318471 0.12736241994636763 0.098563276652280304 0.10922019891015311 -0.041111875488131222 0.13783492483349549 -0.023531435994339 0.093820152058438522 -0.059093988193196105 0.10610369877108496 0.033998419467982134 -0.12790704035575642 0.050486901630788485 0.088610965843483103 0.0097594681278093676 0.073427488881087438 -0.030259274211109362 -0.12824965212059103 -0.015553042240919537 -0.099017719129010431 -0.022441685231570547 -0.082131673083578813 0.11979583530628321 -0.14106744375875702 0.087055708637561388 0.040291011371185043 0.10572348549918689 0.069358169392340671 0.10873883008033053 0.13313661568692742 -0.018498281416760937 -0.082664987861203562 -0.11345888139483049 0.026952295592296598 0.079968237105807485 0.096241840403024734 -0.066772264507076462 -0.077170763135969753 0.038678971022862982 0.037225486476193045 -0.11969393053461914 0.057167630683380655 -0.033123510014079878 -0.087265143993688593 0.12575760542511333 0.048319806821299383 0.039491424790621892 0.073535716252617012 0.036205508778916685 0.0024812076742862879 -0.13986829602916223 0.036072737600920127 -0.086916739211366903 0.090550673062430476 -0.039753759478122756 -0.011314274783082239 0.0012605779271768573 -0.043085020239399002 0.0026597820341077638 0.1056582256146712 0.052966322168810004 0.10283643963948336 0.1177347920909971 0.072070970864470008 -0.027192452257230531 -0.032357747229791733 -0.12152901014810018 -0.018346015649835203 0.040532999479479241 0.0037663837925631088 -0.11398522399545864 0.024256628903569472 0.045818972961424891 0.0019914140643105946 0.046789017908315557 -0.13710311558919305 -0.12126889438241766 0.062461065140691364 -0.096986506877201367 0.11241164887972754 -0.018158235098289774 -0.13055191523157531 0.049543530417328889 0.022404858084926555 0.014282498037245739 0.087451449980348581 -0.049840063406470084 -0.15431224721039319 -0.10802869836511907 -0.015534391605484799 -0.12625389295102044 -0.00023432702358501902 -0.11469492005308296 -0.080491800663974808 -0.096898702513386864 0.046582687600700522 0.090744538218212642 0.14067109382901088 -0.06338289730780404 0.028042702322760373 0.09442223594819725 0.077403764149441015 -0.054526782093040703 0.095120092371597714 0.036383468597887644 -0.11704446070917111 0.11991341220980267 -0.051217504068208679 0.13323830787280114 0.06633094646948462 0.10097862585691365 -0.011928995744499663 0.014092550540743511 -0.11765239802611802 0.12520759345688057 -0.033863712382397979 0.019718597744728728 0.13515430972393747 -0.047625867275622208 -0.026260323395960187 -0.062447137664601193 0.10705825291745306 0.064767607745684283 0.095028063258400006 -0.14869783946866427 -0.0043912382935895056 0.039910096113874423;0.11971784405899281 -0.0019946890573021943 -0.0039637573940068775 0.11574731990431604 -0.059550933302946932 0.089449526546390559 0.14617018236850737 0.096403866452760126 -0.0068844953536507771 0.044015257158232041 0.036800090430304987 0.097998663565930177 -0.021689799887592513 0.098707744965378111 -0.0092669839529902678 0.021861013691460707 -0.13333487607479896 0.045688179878886223 -0.13040441979561967 0.058409671585504641 0.11671412716212592 0.10054576940073487 0.014598065443374745 -0.026542011893308147 0.078054125466859428 0.01088539522965319 0.10565820134897594 -0.012791035512985861 0.11353014838177479 0.0094765221266960974 -0.030296062799692193 -0.12641277812039187 -0.1139318680717957 0.017786499240394951 0.068535403502467118 0.10939357415879439 0.097180444497045618 -0.095575918757664288 0.016140896987208046 0.079072282844879896 0.11411770595682227 -0.076191239331802066 -0.074057643248465935 -0.090817418210170073 0.019416042643886487 -0.11761681121608827 -0.082444296250637872 -0.019226320839125288 -0.14533107435405609 0.017060925812157048 -0.13038607249513909 -0.050702362478517587 0.1347591195173167 -0.066834294089421584 -0.074449449772952384 0.045195652088569238 0.11738246312372691 -0.032124173663254235 -0.064842791012849899 -0.10466312607181623 0.13549649719027521 -0.069179416599770838 -0.045391951658590182 0.12775193305312993 -0.058045696010321023 -0.012654487886428782 -0.11064755913895195 0.01453073186955941 -0.0749840508972556 -0.1020160868211791 -0.04020382024426121 0.047911256139669595 0.067094378286070414 0.074012997421067983 -0.0080650872475677583 0.12645791737463336 -0.11641205096765447 0.12237402234922412 0.097953113812527873 -0.051127534232401593 0.048367886199433288 0.13138512603041205 0.065070968305142377 0.073913326102533455 -0.093716522168052041 -0.14289073825923054 0.015352307843443653 0.064380248619439723 -0.028007917487987484 -0.07430953590909721 -0.090256541098603274 -0.075463221565981342 -0.014147183208188989 0.071566591310634184 0.11194046159137695 -0.052510168374967622 -0.082099395263389399 -0.12990253579210193 0.083147293183475024 0.053323169298649956 -0.14104436914538976 -0.031039229176135379 -0.045493955903336533 0.060328733476398111 0.052954421751634666 -0.051397742966861289 0.12681310411352939 0.052080506230357815 0.093434778033083046 -0.045070478602392675 0.08423096230245955 0.096983272809402887 -0.066005600664557615 -0.0086376639228544581 -0.0046676758088624445 -0.07814645249264035 0.13558285674515017 0.069506068983382616 0.12796482053693217 -0.066636509513934489 -0.1010229210445972 -0.10548566466957403 0.098163093890991523 -0.031905286359530265 0.035113459885108486 -0.12452305893242335 0.029478377789009687 0.036327328909980298 -0.028111712440688174 -0.049404520119484562 -0.13081592247418941 0.075046398194727998 0.068230511278160544 -0.12219804050161753 -0.1247576379926696 -0.10834560521292026 0.13408524694908719 -0.12386383327483064 -0.11997153893509062 0.10536775319459396 -0.069265822864420359 0.057732509056501631 -0.046384689929193722 -0.13085910841242712 0.021281278328150036 0.01177265604618178 0.0078708720996412893 0.0015267039545776503 0.049807709092963642 0.062101654519642044 -0.081646191666313317 0.12405736105778423 -0.095370235062864406 0.035954108464826572 0.071717149666775934 -0.11959417900083333 0.052988983160687474 -0.048416311307883354 0.09511173989878044 -0.017479407709252728 -0.075258480103877076 0.13686538175010984 -0.11511988583143308 0.059675606748712098 -0.13186779754813988 -0.0020221214360670106 -0.084432303991286969 0.050271936877100951 -0.082950476857353087 -0.11815291065112553 -0.012895517405656547 0.099623061029036675 0.077006727637164651 -0.069851349741949578 0.00084132778385519625 -0.047410105248491013 0.0075629095283983178 -0.10016367790031903 -0.091445751479653989 -0.020257807320050017 -0.14232630255817197 0.12867728845149956 0.12291413991771977 -0.065385791379388949 0.017397901059541854 -0.077462905393535245 -0.11603333941136304 0.017800101615331281 -0.11918481803084291 0.012575917992129509 0.10510382914208269 -0.090226084961764208 0.075760919719932943 0.056702514676584999 -0.12685625856639107 0.011450016995428679 -0.086207227066024239 0.066336270397837821 -0.085249741116655925 -0.060559856814921667 -0.0043024237804487548 -0.045241360176218118 0.11040302838194296 0.050548545982459558 0.098210425131104673 0.028122021127501062 0.081476548278344635 -0.081619327713393891 -0.078616710427908298 0.093481128562947852 -0.093084877989527609 0.0042887066989436449 0.065827561166734355 -0.08411993005618118 0.017658043297628104 -0.005876194703345711 -0.049556623036265776 0.058476719434771111 0.069228624594614624 0.096188157372125271 -0.13752383039391552 -0.06191115229197644 -0.082421889141724908 0.11519865367650459 -0.040852693302441831 0.09767807362155316 -0.10275138485891167 0.06835193818924222 -0.091569106345440771 0.070462637033257669 0.082246977360038484 0.026791231350872774 -0.022840164205544675 -0.10923612165947026 -0.14469183258912566 -0.092447943910220945 0.091016758106144499 -0.12952201267969041 -0.028879049198826071 0.14689184144809891 -0.052108510229823456 0.11150372917562854 0.089771753564602166 0.082758644060295483 -0.00049774986976734671 0.018044646796207254 -0.11221858036680207 -0.09159625673922453 -0.0053335506936567972 0.13355030155324785 0.13165441010299248 0.0072788382383474929 0.052771931491882168 -0.12735373228439786 0.13714143206887089 0.12744288405921225 0.025923900595796197 0.0049298158037378989 0.020549506469737171 -0.10254165149246955 -0.05530087433568185 -0.063524835413455702 -0.069679188343895609 0.065263041452085918 -0.082869098553068302 -0.0067679058801951558 -0.062767408437794686 0.12953559699731534 0.046749006671544933 0.13196375835680374 0.0019655837216003627 -0.030593421886063888 -0.0082501396161485576 0.031343179901336705 0.0071012359306735495 -0.036379852132309043 -0.018040925696942659 -0.016904355092803958 0.13822248675413898 0.10323820795246984 -0.002695107868235967 -0.040670415566454662 0.05516582920711674 0.11925602597388993 0.0343872758681011 -0.035099922255217297 -0.040382694911078071 -0.14811077947747642 0.09206850807945012 -0.0018093490525241693 -0.03680761490770066 -0.14208836859256327 -0.095084163042825784 -0.13524574006752627 0.10676813231773793;0.022458421399821404 0.11110468228046931 0.042640639835208063 0.095100903150660776 0.031813505253030332 -0.08850792767644719 -0.14263071845113309 0.031107042739149642 -0.076773435367821455 0.13111340851297398 0.12786273392117206 0.033020932974019007 -0.027287472158512342 -0.015705238418568766 0.014083717777235914 0.079913223834646982 -0.13745315913418585 0.096834327343733539 -0.096025409519620825 0.047187740394939719 -0.031043022522666851 0.031946558815487386 0.00097921805434641736 -0.050564885805373876 0.049485605411064365 0.071145822719753893 0.099762959170630439 -0.00086711287052294785 0.0073497156546357073 0.062743510616984716 -0.15508195340425673 -0.0020591918911073027 -0.10116463214841166 -0.062477743963297451 0.12252125827041523 -0.12038414213181282 0.11495938898703564 -0.045825271725706176 0.072236751300002164 -0.075702410671493539 -0.10441243462895908 0.060939830464871038 0.079360367193817699 -0.013094218806098972 -0.12176624107300088 0.014940015143178607 0.018361860036710861 -0.11546701772734791 -0.036621784658748879 0.14903543462099417 0.10808918258171232 -0.034384121154883755 -0.030826386691389793 0.084778973715196229 0.078443376475473947 0.080515402891819243 0.05289799156427645 0.039742720122693677 0.045298147463873367 0.060944075293891224 -0.10714795854624441 -0.11419312418733034 0.062174423628861331 -0.12744795870008715 0.051699966470459519 0.097020483000252539 -0.06243157011662074 0.13144855996223925 -0.012983032890914912 0.13327417637024014 0.0319499155196891 -0.1091323619373865 -0.095396423965195265 0.0069779308620279128 0.071771661542754342 0.10986369840657008 -0.033173679238424403 0.087427935491369832 0.091859529279071719 -0.018296861441172922 0.045874097009771977 -0.077807929196889641 -0.085522594960599316 -0.027321604929937116 0.11742167944323889 0.074830150114448435 -0.04322268527807617 -0.13305964643932963 -0.12389152286136275 -0.10964261141340841 0.13260011837845875 -0.11075060791476307 0.018198005372769725 -0.050705426193405352 -0.033357958921297448 -0.13203158292625575 0.14303863108791989 -0.12256947846129833 -0.023803098399594175 0.061253932940551613 -0.024757405456806967 -0.048568641940598622 0.057542279921808395 -0.062982116711570515 0.025569531691851968 -0.094383275671968705 0.10524845464079295 0.05554184386787344 -0.103025717652988 0.094396209255078689 -0.12419192718690744 -0.12416656862410819 -0.023038724697444862 -0.051675435606943321 -0.015751499477949623 0.036387719884960486 -0.059030887340231701 0.090297169653129922 0.12991593570042467 0.10960029946544758 0.024205759751528656 0.077022450033072232 0.1117411861118056 0.12922405180443625 0.088852625110820288 -0.047351082982986535 0.10969522620369315 0.070409980345957565 -0.083665583056784482 0.096849571025349496 -0.070372769979279354 0.10433541870559995 -0.13103264579761756 -0.0024262212522789483 0.050705341974599999 -0.10036816120589766 0.1339892165264952 0.0061934709077077384 -0.014190685941170525 -0.10541225124558326 -0.1002628802723823 0.067573302175964384 -0.048944529063345774 0.041422534716892376 0.027920604050688719 0.13491519784737879 0.026040348755852146 0.066803608453774574 -0.038213599725840597 0.076432022388558465 0.061084952041625583 0.013575690089176383 0.13436827323073045 0.037143494322021325 0.042568295485178029 -0.018544705977583054 -0.050317032664950564 -0.093574246044838882 0.038148362295019188 -0.091240023587043736 -0.053773551781966612 0.003616380572916942 -0.024470403237346627 0.058038585565677481 0.039286222127576494 0.12106593778802481 0.10736167885785555 0.089055883559077315 0.0034462150437976806 0.11656079364833015 -0.042158810397865801 0.11217079185488936 0.093203044530961759 -0.04671762299496255 0.012826868049129466 -0.044784362469240398 0.11025106776850209 -0.079769673531058766 -0.067162257815922291 0.09840570883805605 -0.059654206980398597 0.11053823811116956 0.10842311209563339 -0.07967107745243418 -0.12809693691919583 -0.12751448890260764 0.028413310876905396 -0.089387473034565859 -0.043887102150991564 0.0026862186801775087 0.063552071639707219 0.10868797224018116 0.053876920474730208 0.095251620645595364 0.10895535645029608 -0.015127797121142601 -0.14775115704522285 -0.12003844235887691 0.032460637479361447 -0.062916964287175664 -0.035370057761692233 -0.11028348506777191 0.027923557965235195 0.039184571745224578 0.10338561182474747 -0.044205188159375693 -0.12377553034198197 -0.10330491027989706 0.044369439503247531 -0.11520572172067607 0.0058247575610239233 0.022355642327577339 0.044897209039202912 -0.026077985114911748 -0.097038436505868797 0.11175208063723187 -0.10608739320135853 0.039917860920880829 0.10777446509349538 0.12268815430480197 -0.079632830619037379 -0.081193888189602617 -0.10759891556071603 0.11147198849658399 -0.1193876326347031 0.076465245829006975 -0.10039881792892204 0.0070110668666886842 0.094879822355142834 -0.024449514951221427 -0.065652495735956121 0.076515693311396391 0.11153323762830546 0.015189985948580655 -0.030061987840784201 0.044978378674303571 -0.13240531649125795 -0.1230085510813496 0.021825995885210499 -0.0064856902586204572 -0.136595847722666 0.052301970980653686 0.11015919628050612 0.11899582771830441 0.069029829464324302 -0.014379044382257327 0.023424734418610042 0.0091172887383438785 -0.035023488795003721 0.034482375456696857 -0.013269131412577346 -0.076515616615783807 -0.074609306848444731 -0.013081515071277283 -0.05673297867874328 0.12022980829229975 -0.013197620424173257 -0.0074465119032479255 0.11679828989455941 0.036772857878747157 0.12130527712333392 0.13483683728860521 0.073217317134286489 -0.0041135620977906708 0.033813537829260533 0.13106867154563892 -0.014489808449555859 0.10660392881400085 -0.052582339501300777 0.095241661747136566 0.099643706803336493 -0.003013331954684265 -0.14504657642024019 0.11255692508765328 -0.13395873173359932 0.11750999504350342 -0.14673774323673716 -0.081203577000677665 -0.1073765668549904 -0.042976341933931621 0.082238187380205233 -0.15300785481445295 -0.14100788414117718 -0.089763207658892744 -0.15767669025290806 -0.055869358042575368 0.078028826585130495 -0.0094394963947534837 -0.019048457724133282 -0.010043629589004618 0.014356242170164384 -0.04408981887610787 0.023904648078078589 0.020957710804297907 -0.015923261594912037;-0.065183503749414062 -0.1069142130468365 -0.016197223897327331 0.12763865414917119 0.14698439679521891 -0.096237528652127008 0.086130998056983571 0.076710533423277327 -0.0071133280496115409 0.14084732318714452 0.019373925988865118 -0.041240804906874706 0.0076291980887377266 0.12915525064469885 -0.041818539956906285 -0.047202016017141225 -0.012701002176195145 -0.068343815746355313 0.080786272930258196 0.019837514515149632 -0.062584094043567781 0.081985648395666674 0.059437331752460056 -0.024529241082808049 -0.082817195213825773 0.053676336419568274 0.044678048797267354 0.075473407124823436 0.10703366989539605 0.076884662615625959 0.020101947548031348 0.056945655234471426 -0.063859238051530792 0.078558201379863676 -0.074868033766816486 0.11061412215992548 0.095630368120519615 0.11894259129853733 0.07044006625569052 0.1501090237689344 0.033194123982407106 0.04414399494188475 -0.021488824952910563 0.066731761954023847 -0.073820334675688215 -0.010260773532107973 0.034080239290643383 -0.024840372151504916 -0.07243030523323489 0.085285723751371945 0.081765722599162788 0.059042747920050244 0.115187484803864 0.012889099966981267 -0.06233828194759606 0.034593980104288491 -0.13738384339229284 0.063634883477734341 -0.0097117081332300324 -0.12492374260003274 0.092637418536097957 0.11214952033612344 -0.065997857265327628 -0.0084203029776474571 0.098666930293653574 0.061374781793674664 -0.13450404444962347 -0.13568597405311436 0.081939482506523637 -0.047118649312201874 0.13122880654140651 0.076833279076142194 -0.087942585497998355 0.017554786832729496 0.11432876567130938 0.19724510307869753 -0.043783233392915295 0.092267843198613211 0.0010218341856625993 0.023883409949401913 -0.056023575670303111 0.087051449090874908 0.14426276381245473 -0.073145728899480067 -0.0046012709700777709 -0.047663382957258464 -0.007438185193916735 -0.089354687448414211 -0.099798205448574595 0.049870629490362042 -0.12863966084745371 -0.016057368069537087 -0.10082544548235518 0.0033995030943707477 0.012113915127489942 0.058469313756212296 0.046693314002556545 -0.12623098345938141 0.041925294996387585 0.089094780748979738 0.019913282037081308 0.14670239761428974 -0.044993662947593181 -0.00087134933018576577 -0.087468632448421846 0.11773895714569339 0.14473786629562127 -0.14333591624775124 -0.030067840553055957 -0.12180580691872162 0.096726045546938158 -0.084643705224668173 -0.057754146993056102 0.0054744324426425975 0.12610295208283889 -0.098101193504647549 -0.11628046895902988 -0.13897249263589914 -0.025950010794459813 -0.065132821708965616 -0.079459827878308548 -0.0037126773132147447 0.089163118829927709 0.028984957507607587 0.11361995307510743 -0.11326744509546614 0.17534881656602469 0.19901069990259129 -0.13857243312056361 0.058501277994582775 0.078863215261523567 0.10691428698491198 0.082958973257467081 -0.087867904985312745 0.14260369747639048 -0.004121448743408705 0.029935067234021381 -0.098975361933454437 0.012343301034811285 -0.0026086968621352943 -0.043959572873901738 -0.060584022563301032 -0.12226930801406516 -0.046901658609022547 -0.083706690522184143 0.052736947804910519 0.033555403062310411 -0.027573532088722767 0.071420447356807804 0.045590420605014809 -0.094615563628204072 -0.14737586610302716 0.068258389834728664 0.1653336475201706 0.13778282968265812 0.014759853731764661 0.033098103688476231 0.0050199520724511183 -0.090980606842309464 0.082480946206781217 0.026235911121845788 0.038485840646047029 -0.078543447170302066 -0.091387149989233002 -0.028279980994511032 0.021643812630838182 -0.10814884466920144 0.10869419872604451 -0.091554109001899128 0.076540655647910752 -0.11031109045496466 -0.036827002457744742 -0.044785901131358163 -0.020817663182125523 0.019596336289224033 0.049088980803220654 -0.034732594327047978 -0.13554244951298777 -0.085424689084632424 0.16938251594738402 0.059788476034009143 -0.038657028267595428 0.11906934433701521 0.11655186587043316 -0.031376067590528536 0.12624990464772065 -0.11489650130653392 -0.10642275290357323 -0.04035050545224686 -0.12614119074336777 -0.1163653187138904 -0.1134147521527144 -0.043087664462712394 0.051138085467600389 0.1238400615274875 -0.12961047251994504 -0.11362372818445939 -0.089257457203349544 0.1307382186651723 0.15038554929321446 -0.040753474942684463 -0.050901975340784306 0.027511419665388396 -0.0012838428736266908 0.0033456954344390838 -0.044081090057342537 0.20323299009326609 0.045663437388523874 -0.089257883550785178 -0.046636912175812076 -0.13118589998606406 -0.036760716739350253 -0.011631183904811195 -0.079448834998241111 0.00080160409977336386 -0.0075217436151065837 0.01185020410895739 -0.13645035956785648 0.085037587634317194 0.10787647012527526 -0.058840705534295462 0.055585308475383413 -0.012284259407438458 0.13792842759797438 -0.094464155007657674 -0.041744913826327446 -0.13009499725689919 -0.011896386525646051 -0.01071033444374815 0.040093832196261073 -0.069224284284709267 0.026775552162431736 -0.037254271591154901 0.091994469157308897 0.025829367178909535 -0.10987960918911108 -0.034258652892115667 0.046092435909727177 -0.065211592646549951 0.10941381028901029 -0.026776399770946754 -0.12917800834232923 0.039133044780678368 0.081475637006101914 0.12424673735947789 -0.0031327872833640936 0.05442603533044596 -0.13809913035157845 0.036971944504029186 -0.055517008560888918 0.14019648729955472 -0.032808960553668956 -0.084408071123116893 -0.089080273618788119 0.12547049385036371 0.092050991388943959 0.089964993194951909 -0.066666663219305131 0.081646766043300817 0.0033130039642516101 -0.094829625597690481 -0.030964699853935101 -0.089471457182634967 -0.049141151782835332 0.06263930560906382 -0.077710800520366663 0.023811078173113984 0.018041813405999342 -0.13736380073016646 -0.099608537845952444 -4.4269000013922246e-05 -0.15195751862873033 -0.014877682794860561 -0.0096777677296526043 -0.024156006210360598 0.025835592271832596 0.047226452232970499 -0.11419489623903792 0.083053367699847253 0.10292408545162762 -0.048277925198519374 -0.14225617036123203 0.11901186249101582 -0.13407362249071783 0.068925489365006268 0.075914950215805951 -0.0063898404715740141 -0.088606593091551819 -0.10319822081513562 -0.12494698975581531 -0.082816382537449537 -0.059222786927702262 0.087261248932513164 -0.070024081311427122 0.097506139169029449;0.025986932856464404 0.10589285613046219 0.078474058049303089 -0.14022020391551909 0.022072675300147383 0.036968437681172299 -0.11666249917919051 -0.00016479062539672708 0.080678941598050585 -0.12552728831567847 -0.0032760015332275712 0.036516623509953133 -0.0069287119649231949 0.090846418037160176 0.069319666972883456 -0.089124920456666576 -0.098920912219382554 -0.033132898375208233 0.064385834378271403 -0.034176089145473661 0.059041894553090057 0.028965313591786206 0.069960637280441357 0.092106336195939054 -0.018984639983956293 -0.14403017710560317 0.027876171491101394 0.13916070653408444 0.1388314784975529 0.12380875702732705 -0.038082865628781756 0.10534613817931222 0.072163289113213624 0.087536138854277329 -0.08757336877933862 0.099941396368760205 -0.017092372067567134 0.033908723626784237 0.1219296524431419 0.14633845430965164 0.09638171583159931 0.1321764550568853 0.12023819357898415 -0.15002059263384199 -0.11032628196549815 -0.10453889301065643 -0.019721187845617234 0.099840459377038143 -0.045010675938349884 -0.12647094370991094 -0.091796430742868571 -0.073650640479274027 0.12888616185977347 -0.0049028760788726086 -0.10818319309471147 0.095297934032160247 -0.0068767906560094601 -0.050525949824166798 -0.052157624115321675 0.082352382003460012 0.060372356465413411 -0.097369406894311616 -0.095253648370206959 0.13795415872878072 -0.017825900309680339 0.052545165532746484 0.09580618401957279 -0.0046894990402241796 0.12870867061378177 0.0062897591310273416 -0.015639184752759897 -0.060404716727329347 -0.12039343924268482 -0.063973060173231164 0.063921091132177144 0.098227317840977213 -0.058696589429117443 -0.040123102990047226 -0.09034689629477495 0.012948415765450342 0.030615912410334151 0.094328297041417916 -0.11830373975576354 0.13205558768477929 0.074091363494638574 0.091429695304850706 0.076845145813193891 -0.026245628052625664 -0.032990136873924401 0.13491354467163341 -0.13006833961521808 0.023398836629863494 0.10297045588588699 -0.053085407754219591 -0.084355304954946822 0.10738467343349239 -0.12723905917486322 -0.012479586032178273 -0.034589438979024077 -0.083060446894131001 0.057081425629929711 0.077107007322422788 -0.12244466882264503 -0.134793957091948 0.12698830205107678 -0.070092901300169846 -0.023328310834255905 0.03990128759303168 0.12115237729049665 -0.038059625671529894 -0.014429659731250473 -0.01574247825832191 -0.03654849772050256 0.11088495646018776 -0.013768848734770552 0.035422460449033244 -0.085340625777501844 0.075945324483031346 -0.062567603522073592 0.0747854117343075 0.045856493466033023 -0.016021611205181478 0.02024913373473217 0.092880818820764127 0.0061895451124672467 -0.04898129469753236 0.033993389773655285 -0.12701140845878744 0.12801210661843618 -0.10334262446031196 0.051782878401573834 -0.0091747435934978316 0.073312409077681898 0.13643737335018113 0.14274936169811189 0.10972629744037776 0.07751871782236 -0.081167099491191524 -0.088640288483537222 -0.089419723941582624 -0.12130846333227682 -0.13202029478590949 0.030546198315972706 -0.077613672318086191 -0.042825444983860268 -0.059923782105897314 -0.15501582014880036 -0.14281278950144682 0.073721213416029441 -0.095307042386063676 0.0087535816108970533 0.088460476523149312 -0.076228039157006849 0.1066786095466648 0.0041790109690955663 0.12667418860073557 -0.018234727354670948 0.10482733413914806 -0.0058295422164448205 0.11517638149644553 0.13756413861735328 0.10594282533250746 0.12006053596339766 -0.019821899909966904 -0.028951289580792117 0.025497846409906558 0.098363390689159724 -0.089025607477006774 0.10776852254041983 0.041905575116993159 0.038266127411308845 -0.047049597953122781 -0.059036499841572561 -0.028658239926951795 0.10184791272154933 -0.13904452501118569 0.010733707827037593 0.074870623645234613 0.073169909450315804 0.00066968644040164621 -0.04580560165317029 0.12024727751215475 -0.088390537478293466 0.028136903564592395 0.071664598850638944 -0.12016426724953477 0.030152331890936 -0.068424014003289485 -0.050345924744159359 0.0020432975376990532 0.10985992417221652 0.13997465389485106 -0.057662641688519894 -0.075509725364535513 -0.00051872885006551948 -0.011233951409938462 0.051381638406285339 -0.062517244966777699 -0.098007079113422504 0.070493856876278543 -0.1536388414386444 0.015737403779694441 0.023156746349828016 -0.083997549132519347 -0.055517492039754944 -0.082442352932391771 0.062325066411726304 -0.034593441099709889 0.1356166715737874 -0.089377888483128012 -0.10726190838671466 -0.050456110272017039 0.14460575065657227 -0.074776686730796349 -0.12358916507128685 -0.11793534255844178 0.11986662350293896 -0.054579225057661995 -0.051454809617251074 0.084698340490044752 0.14776113919020711 -0.048745985477165028 -0.07260193964465432 0.0054892616559745894 0.066179266295177647 0.050265534914530237 0.0039757407778311504 0.095734077673517201 -0.011119607360975833 0.025464465655285189 -0.10661585327426185 -0.041126033826743603 0.10186692926806365 0.096788839774859067 -0.13670709086319396 0.090656713669954814 0.0021967289790278985 -0.070852452043102213 0.042546213848723813 0.060495424796601818 0.045192845817079906 0.10774049002504345 -0.050291650843063605 -0.0010895091592838533 -0.09691152574112194 -0.039616831928923742 -0.032619754134655961 0.029485889283215907 -0.11214197227875612 -0.059826238838189841 0.1285355178615171 0.034252590847605548 0.014711270806232073 -0.11116555588209671 -0.0022389357499867256 -0.084179770658248027 -0.096801862525098203 0.10161458658456028 0.13131743594104861 0.040532844037502479 0.073738018287283075 0.040692945354586181 -0.14361328633071366 0.025466245583404698 -0.088424570829077856 -0.045055979114094195 -0.1188585570521912 0.062893572430361255 0.040544075820089967 -0.090052994662544766 0.066673365424390424 0.097112047616249669 0.054743358464761076 0.0080448622520686245 0.086517711552248994 -0.012623830953011941 -0.060475885354726033 0.013192799253198526 0.047864719716428715 -0.021969896271348141 0.13110563630981542 0.055454882139029396 0.14806451154593697 -0.059486347970229905 -0.083936667667769471 0.12136042935158155 0.041366306884346969 0.091524039766390813 0.11088861496670324 -0.079284927719699375 0.12263392048735273 -0.12259098919297505 0.0085341345683125815 0.0085808093690548041 0.022929534132253172;0.060955734743317877 0.11860101270313794 0.035799888235541609 0.0408471514767818 0.03332513837700856 -0.16453458771711507 0.015698613680214836 -0.021028361495230193 -0.16066671940608904 0.095249331535504966 0.0016451446710609606 0.12044107537547097 -0.0094256771496618406 0.021347655367029317 -0.14050196458710576 0.038269103659419573 0.0044792375753410696 0.047008256554341883 0.021302400856316749 -0.05578083593449501 -0.090183567749561017 -0.087476832746796254 -0.12885236827868676 0.11498462619441993 -0.012632670476041063 -0.10758266445737406 0.058146032735616172 -0.152973860904699 0.074934102594609003 -0.009591826458155964 0.04404618061207638 0.030107271345061311 -0.080475696225778354 -0.11121576591368176 0.12578044092002977 -0.012494547133691115 0.031465870073256533 0.038916864606951207 -0.1300150255496933 0.011779377290350746 -0.069329198938917785 -0.040176135676036964 -0.099458849833826052 0.051636011707086926 0.085032786399510174 0.010975592357441314 0.078575806421570804 0.13804285622152765 -0.048028675422046627 -0.040286390191084376 -0.066227545383682793 0.086775550395295234 0.030051516674727503 0.065406354682457465 0.1224367466903819 0.059844345863067798 0.016718052461166942 0.099046275636617706 -0.069063451862431957 -0.042978931410513233 -0.0098685139125267163 0.07007911525323321 -0.036535251973050013 0.0093422651877236532 -0.014625176134978983 0.082136602231550462 0.068233599264779551 0.009480162910740119 -0.010201756686797639 -0.017232294741569728 0.12951954881031522 0.12225255612931089 -0.11765976326764525 -0.012187948494807905 -0.086567236568559733 -0.039761893581726375 0.057181666345100808 0.13312990598814803 0.02123579625771856 -0.12140304964859036 -0.15453608947602013 0.014735768847509708 -0.095704990970307643 0.037331830706417109 -0.12075325373741866 -0.077046187498240312 0.071426620522176923 0.0029862824764952237 -0.10905500673610194 0.067146718555345819 -0.064925891351374443 -0.057680143912318509 -0.014588638877319968 0.034193151392095597 -0.025696016591978749 -0.0023761587147930053 0.037839102029556586 0.0042050028896809402 -0.089166764978292665 0.076759706633759514 -0.0019810890089816142 0.042073832610979994 0.015464598698187943 -0.078838135866147824 0.13012638099917373 -0.048996396843557437 -0.038850000174050367 0.13778444745899338 -0.078212901124567663 0.11428467224348571 -0.093950802915982304 0.14083120159979057 0.0086882923580565811 0.097833555096662181 0.083007636884310967 0.091478169706519771 -0.029018636339280052 0.14519015804139163 -0.087625796516604085 -0.054342853794521952 0.017114375191257459 0.074498738895299399 0.076997910602438574 -0.092229776262578445 0.13160561475641244 0.14285588379772599 -0.01019464844071763 0.051150349103152519 -0.056629863045608998 -0.085554663964423225 0.093109079648314982 -0.093359095387158211 0.081678933621304559 0.085974647257828857 -0.004570648332655902 -0.10905844287951004 -0.05589363591104933 -0.12371785340112838 -0.12245398650372354 -0.091573725687908322 0.054469132717810217 0.058368679942141802 0.15098644282080675 0.043910982536439595 -0.024512774643401253 -0.023942601933014646 -0.068850980207312992 0.14687065506197416 -0.10838266673402534 -0.07345420234784017 -0.012569561442856585 0.053578090645537611 -0.038211294968704269 0.12712316444170466 0.13995348052934434 0.024634135518103648 -0.079293167285818159 -0.15445326026656223 0.11158494455794803 0.09625177710072487 -0.14692315600981082 0.11816105608449733 -0.043772296019412432 0.033128351522504887 -0.10081164889794252 -0.081677277046214927 -0.067114054030071882 0.11181065952848428 -0.031078681300737963 0.087889342990779148 0.14565157736785603 0.057306082896737491 -0.0046543774606472733 0.017116223247336394 -0.013666481967279129 -0.027849564339092709 -0.083682249842434733 0.16658210298465151 -0.11984369498874967 -0.0082295996050828751 -0.12983200549360813 -0.11177154293129536 0.040487798847029771 -0.075418882539723855 -0.023346532018537171 -0.088454210494034374 0.024988336194413215 -0.12299101482241923 -0.083503763868099698 0.09062301353479249 0.12499980625610943 -0.0073917821271406101 -0.1086899771784821 0.068780975903511787 -0.10870326258453951 0.027851498010550275 -0.053222949240455619 -0.11855098207765905 0.089979701815605259 0.062409953872390608 0.090063158093176693 0.02377111377908115 0.067624564392972833 0.083686568399433198 -0.0097699843185744227 0.026655170746188471 0.13292763795975607 -0.13784089659992188 0.079097641945691674 -0.11701756091589115 0.034153957483797306 0.12278906933976035 0.10508285905164802 0.038678371366068574 0.069980070937160327 -0.1145714210085025 -0.068230740713061733 -0.10132619310691193 0.12828427059441447 0.093976576470548578 0.16066321743331669 0.040779774029249198 0.13305792890505497 0.023654386511901136 -0.067387991933789082 -0.031169845766081207 -0.11183352536140416 0.037036805808604779 0.055336168395533611 -0.022656291826789948 -0.040893428305758033 0.043322548734178262 0.047651761318300907 0.13951489508682627 -0.14298187002369625 0.063354367072385676 0.047293880298410119 0.075730151207007504 0.031671994574077787 -0.15152273627915741 -0.062980647398230311 -0.032703404322001882 0.093139300775801223 0.013660408074516827 -0.079529623256256538 0.046026505979688694 0.076179468546940576 -0.0051102685702102656 -0.082822659402577881 0.0029453635336089386 0.0053178560185968672 0.099131441861060252 -0.064237615085470809 -0.12196280719936661 -0.068381599312596478 -0.10239702100303286 -0.044825386960415853 0.013037354563354503 -0.0046683657104789264 0.10796366979060162 -0.12829514421088828 0.083728621969454672 -0.10506512005980854 0.10418406353981652 -0.00066387027325022865 -0.090991830935926193 -0.048554213622807353 -0.04251984771675258 -0.013177984752686306 -0.0067548924902425802 -0.11278367407775962 -0.0027543183349068205 -0.03236172036410629 0.14874715051416687 0.010972902862870589 -0.077436796548072728 -0.057566027454624219 -0.038271998456310602 -0.076576808088346979 -0.10688921549636396 0.035515296411492286 0.0045140680300855239 -0.031299211323647429 -0.054754100418781655 -0.083755630349034479 -0.056219935629233615 0.13125483852449499 0.13821815708846608 0.098216044465295485 0.090603271604348973 0.021857043682746373 -0.013624002826458124 0.13659071452144347 0.13410538755486232 -0.11536977149738321;-0.019351293323553509 -0.065657562242514581 0.054486174604364702 -0.06917942969623736 0.13852644907575409 -0.12997047185634011 0.089022723683437527 0.081783158451238638 0.032660908228003403 -0.086476428020130586 0.13881328969108969 -0.042533803824519885 0.011301724536428638 0.0039868209559026282 -0.011636108336737651 0.0077463672813356897 0.094187383674324471 -0.1106668033174608 -0.044097001114629469 0.099771843589640752 0.0072704833183929365 -0.10782049149337433 0.053625741544838332 -0.12625334768978616 -0.11374133614086059 -0.025546435765772885 -0.062738287839551418 -0.10960727740236913 0.030935807535634133 -0.020299220334383142 0.13131695770183133 -0.11685347416775362 0.035692502139829989 -0.011686546743507855 0.12183043902676408 -0.098109658871981101 0.014583845751263837 0.13944186387059668 0.11074876020018964 0.12053541194860813 0.14661686079955319 -0.014970815004714703 -0.13108397559094573 -0.035930360960815463 -0.13278786756334485 -0.052176690360336078 0.018050188212347561 -0.13779070963081388 -0.13014723685583973 -0.075085412321280728 0.013831425856298865 0.012329922836670391 -0.038763139964497664 0.019500155625229526 -0.16074142401358407 -0.14563869716439945 -0.031756359115938861 0.085172250529931867 -0.056124868825810706 -0.0034428582388457969 0.11845572435561522 -0.1355202655083993 -0.10395036928720294 -0.075059303636080127 0.029739148084229911 0.096040709256953627 0.093891510741720488 0.068696747577628184 -0.02460096872234193 0.052781789054717976 -0.10391945911303463 -0.0064222094244487998 0.0028612637989077474 -0.16619789921598424 -0.059342515156451857 -0.14308030969898344 -0.044255363400115412 -0.040618875387270839 0.11747598371924389 -0.081393446589512849 0.035120945563464449 -0.15911915592231676 0.036612907136752117 0.074576962153290086 -0.073217621840467151 0.045790960817367249 -0.11765311548930357 0.11871082300567537 0.10474835473483624 -0.017085106520996769 -0.051915967937262969 0.075220403837230485 0.12830915619315375 0.10762712692756815 0.10700681939364425 0.095512062647837098 -0.043041720475923265 0.099535184299977403 -0.011654638747445219 -0.11562043479624756 0.080948097244821757 -0.057188597325598244 0.086791145840061146 0.13926844129335297 -0.054624980751880527 -0.12762798312406351 0.0010421773881531785 -0.17616269478701024 0.044862791080659506 0.087758348692493507 0.029420529784417171 0.070622352296659238 -0.069766911253872424 0.0060136120277271762 -0.031982664613983067 -0.095248573242864606 0.023491564264243561 0.13682464346072476 0.07777502933083616 -0.057189375044241653 0.088822706924388248 0.14782492439866168 0.057842051252648095 -0.069445650622156657 -0.12106080828289961 0.0012332715576459381 -0.16808439384175689 -0.030984822891669973 -0.034183851908373586 0.12409821499982945 0.013211180268219193 0.11140085555302519 -0.022953412511557289 -0.026089850123906338 -0.10163888217998596 -0.10058968281418881 -0.064138680798508679 0.082023994806628087 0.01864926672091255 -0.0072842451382729512 -0.033066145163407203 -0.0021132997268462871 0.019580403382769465 -0.098035101371812858 0.077065586941244935 0.13084885171908014 0.00014127144313844542 0.014706057238860584 -0.13311802444637713 0.017988639482481618 0.035940333276013627 0.029369315236276575 -0.10792085649209626 0.0620568646314811 -0.11787734769699412 -0.121753016209562 -0.020129597450292042 -0.060114002807093191 -0.11830141991162996 -0.13916909236434288 -0.18138564350362846 -0.18556681940523814 -0.05892289918880303 0.1224039790802601 -0.019433606604235668 0.077848219486959344 0.10581222557845718 0.079162062253158305 -0.10472496102138373 0.037223598075355385 -0.038043129600953927 0.053495647164281887 0.02389985037427541 -0.081665142320698436 0.1404462745705326 0.11627061453965863 0.031627446686278968 -0.018696359842467251 0.012546767563359443 -0.10107598467369688 -0.072718815686733551 -0.15566392472506146 -0.13913948831691075 0.027788278762897949 -0.066713047461294223 -0.0093330322206674338 0.041734324405914264 -0.13119106549643392 0.13647572973634084 0.0463002755619163 0.14762883580453676 -0.083847298095661771 0.11044542546469713 0.082460413483174469 0.11727600451930204 0.011920708234306989 -0.073730102824413474 0.083783491646551383 -0.022996729763646501 0.10348716825710427 0.14203972462957698 0.087173770248842666 -0.098096862453778619 0.021081114528217312 0.073581847755615756 -0.041897601603636127 -0.069363078003871703 -0.15813958823882657 -0.04968647033163881 -0.071328397392302303 0.026350321115536188 -0.13181011385101155 -0.13934508693200759 0.056130789785988601 -0.095463820020319154 0.018278607509097461 0.031691413782399085 -0.069450889099341787 0.073045267806451555 0.065040492839623418 0.0068324854210890526 0.025212628021540871 -0.026943179473390758 0.14784603018408357 0.10362985090072027 -0.0085238111992541818 0.023313464738350533 -0.031456429898603366 -0.10280351092512817 -0.074558884453395355 -0.0894241868250292 -0.11132534360694907 0.093329167903446197 -0.07095956779940378 0.021048462099430416 -0.059497353408667901 -0.11223340862946447 0.036310103594763714 0.047000458765933756 -0.15296771358320943 -0.0064518952481697235 -0.0020601000015088447 -0.038601231020958304 0.0032895095621682628 -0.047165023209170216 -0.099300275318241468 -0.037564203320627092 -0.080749340661339181 -0.031270431496649792 0.028569724952793061 -0.034147221601796507 0.070043932754632013 -0.0065887752024028348 -0.06204786052521373 -0.062102921311409542 -0.060882531295203234 -0.093193080860341934 0.047741407714346339 0.031684121654457345 0.051051436442399636 0.11936564284613788 0.031728406985644206 -0.043095393960505289 -0.081026795657911321 0.11555394180768627 -0.14566149268078779 0.12765601351963143 -0.14697211204826002 -0.10058752609748081 0.11607068904299792 0.029530615282404627 -0.048862540312391525 -0.068791941452204255 0.061056222745502882 0.12136782960011804 0.13197072175244404 -0.070487849729899826 0.079258463313408828 0.082464708578115872 -0.02103501208922055 0.076754776456003884 0.016750037004033793 0.021071006454651795 0.034078091307244728 0.083343018543794292 -0.037713066894615913 -0.048605629145686814 -0.086014812006010577 0.13082690374109729 -0.075961550102857212 -0.097426423319011857 -0.11445962867492272 0.14670208914984922 -0.10090775321189671 -0.018975071260254869;-0.067203361034302148 0.0004185110942132308 -0.011941161391774473 0.085500882488919919 0.08072144015035819 -0.14437402118566253 0.060860709745031764 -0.16587922777350847 -0.15468183481791667 0.10757419581352064 -0.07724488357759339 -0.10868040679582637 -0.031696531545697369 -0.14166745524853575 0.089587094249268653 -0.042386203123473166 0.059917361424908333 -0.027538867659865681 0.032798704093396698 -0.08317841352551722 -0.090863167530840214 -0.17725884101474154 0.041371582310303912 0.0079658817256712967 0.089303634030443099 0.13791482318932613 -0.13414592836560707 -0.10955053981346492 0.10643400468965336 0.12603040285853367 0.023731133757121447 0.066793426823462274 -0.095061255998181063 -0.10331665691969164 -0.036727989922069715 -0.12145220004265071 0.029644402705886894 -0.076199695692646896 -0.14283244578588 -0.077409045385144523 -0.018329996257627611 0.0042915471099532546 0.050888692712558754 -0.027762846070614487 -0.014912093625742591 0.08355373595756406 0.082555082069500976 0.13177741825006173 0.058026121196590168 -0.033797276924453348 0.0032249032360462636 0.12299893786609292 0.083377812437825619 0.13456865123608677 -0.083915730607345709 0.031911044389865889 -0.13785923802630717 0.13837066988411281 -0.12389266869375082 -0.13112031816724742 -0.034769734358297916 0.11106013540760934 0.13782220882985258 0.14177965346037422 0.07398205445048836 -0.053738619668170985 -0.030134021547989873 0.053532023140292685 0.046744232786542703 -0.010810328980983575 -0.12167433775260419 -0.082097604450162828 -0.066050698502707714 0.022406539625928514 -0.00017816846811536226 0.11084669241789659 0.081359586945877763 0.078103011380500187 -0.063170229001106595 0.098604737961074718 -0.084013549122075884 -0.13974878727530687 0.070463008329120336 0.095154120018596355 0.018808960055411321 -0.10206740642045095 0.11444868471085559 0.12262347879918437 0.11104869299634744 -0.075166557346762933 -0.039432321598058442 -0.047361007485045639 0.076201108236459786 0.038346136823272606 0.13240141102483699 0.13974942357268036 -0.020074286894655582 -0.093552399665897332 -0.14562269604842007 0.1565904817145678 -0.040667065540343335 -0.031257892532931882 0.075868244909214455 -0.035155711735161618 -0.14972660572755733 -0.075476285154953277 0.03597920816400043 -0.075828613698438227 -0.049779965021857719 -0.062811466312081662 -0.078653843297836867 0.12748825398403391 0.14146353732559661 0.13401659746479389 -0.021824512182134777 -0.0014186617007132503 -0.037162866096536212 0.14678076711799137 -0.031035604981140403 -0.090807225002945011 -0.055123659813670137 0.13778475445558525 0.088770642899080293 0.10100973197654667 0.030978282245257376 -0.082626632433371747 0.17942449418073084 -0.011575640871737342 -0.097840435924812147 -0.065492095355303037 -0.10019876537437841 0.088301657735003897 0.03326095542924265 -0.019483280590146587 0.15186591480500145 -0.028335849134812331 -0.00092836914892490308 0.097095458832580278 0.13043992093608034 -0.11311533705195582 0.042909904523948522 0.15138915503742803 0.070149549176581533 -0.08350379390062268 -0.016292438678940615 -0.033954862924030979 -0.11705359552860442 0.11953574020646658 0.086850503190900208 0.072734053444733632 0.17394513918077431 0.062166407626386533 -0.013897660392519931 -0.077566345955842581 0.025917960833931684 -0.036746655517562704 0.04277817678477841 0.078889493476864719 -0.029788601311858762 -0.011988691368693813 0.12094530773583821 -0.11895829906958108 -0.10550725724462974 -0.076346150990217354 -0.089842956433979895 -0.04166187098070101 -0.062535733559769283 0.15986052485333752 0.0038940397140028401 -0.083344952868614999 -0.063649915124758497 -0.037765177331901517 0.079187676387293862 0.020580391702518828 -0.020803772747677134 -0.0042035318435639634 0.061918653422289707 -0.072178558394529399 0.073345907838898702 0.17913721107021652 -0.064428425685189084 0.089682195616666099 0.08429826204448071 -0.10227352525804866 -0.073458372119343307 -0.047041371794918706 0.025903013747558799 0.0085324145595216429 0.018369247407641599 -0.09059192391700524 0.021884028210455628 0.017352945965551526 -0.10105821097037267 -0.038412434642630527 -0.076359369147496053 0.02313802972768712 -0.089128506289018541 0.025216348624586847 0.021358067875216952 -0.017756921252239918 -0.017530939648844276 0.11421261700342462 -0.050023826309611316 0.12628806164153045 0.085726880647573264 0.037950356662461084 0.072129507496342518 0.075247688190338669 0.014588860574966592 -0.081391470230053956 0.011947248260317577 0.098028629703947393 -0.050681948127822708 0.023676846546385986 0.0017582925187666115 0.12514872488898854 0.086305349369137876 0.070014106929517012 -0.12707057007143771 0.027353480145701325 0.024759492905260548 -0.11642367098763612 -0.041862570316444296 0.018344691284946452 -0.096035772645736858 0.027589060908062193 -0.039062759060653533 -0.12823481131432807 0.013998583030194276 0.14153854981579531 0.064668309337585467 -0.003624013027615666 0.039135218717184485 -0.10822577821915562 -0.040171879321274029 0.0754129442232266 0.076774455580562354 0.045422363006633645 0.067957680566066977 0.10972445589673796 0.043313909744456452 0.0012812556523130079 -0.11284267930349322 -0.098029431912461357 -0.0004095743731509445 0.015364488282630573 0.093576735315238108 0.12243672608901213 -0.07895188727241495 -0.08997912213886175 0.037412768656465881 -0.10706652441590632 -0.13374837272477832 0.024667617519956712 -0.099224711117113187 0.031911538259493402 -0.0047842315182191593 0.026819672858339139 0.048757885630228558 -0.011134113990931116 0.046998351113429516 -0.089741237026998169 0.056565636515126229 0.08303467729013124 0.14786654697030954 -0.12243307102448435 0.074843487826770458 0.0392613729125574 -0.090631484510560384 -0.069252517440919675 -0.052161330909311937 0.018079544103846303 0.042075434735712389 0.0024366617780316674 -0.01906538643460181 -0.090896152997803001 -0.10745812492875621 -0.092443856984320991 -0.0080043417248887184 -0.020477546161889976 0.077621951772620351 -0.051653931607522865 0.10220370498816553 0.05096164048717066 -0.036042851377481706 -0.062172622470949075 -0.05572108835146955 0.071079579155459843 0.030752666327810079 0.026976573289348282 -0.0051370392390349432 0.088150055745602404 0.057813529896632257 0.10247606504553376 -0.079216929927882179;-0.050171633025038971 -0.040463205267650612 0.060371979234750794 0.055091146488553677 0.042825940969065064 0.089850122718393835 0.020377512109780054 0.11258909821046206 -0.021571130970198318 -0.046124219882446318 -0.064218352757971497 -0.13621317524181187 0.079461127010572882 -0.046057223123023093 0.023485749677768099 -0.14296120461866249 0.10633420513949224 -0.014831119237563703 -0.13773802505084271 -0.069826927575757702 -0.13674732333471251 0.039695035912860194 -0.07826742576162439 0.063481056668546948 -0.10000233668493672 0.017928919324546277 -0.067610888585141235 0.084627355635369689 -0.048298524837944667 -0.094561189124956826 -0.048981601493635202 -0.07854623436278689 0.037934738303752047 -0.093485425387525647 -0.083073270167983368 -0.072860201352182866 -0.072463055319854017 -0.033117626076464443 0.077348279289461627 0.01121628031073623 -0.05874524491641489 0.12112417586841817 -0.074238146304366717 -0.093125294188614982 0.048273453838977395 -0.1238362327240768 0.061605599196218462 0.11373384208836004 0.046949443568774334 0.0053833951035239611 -0.12423962918074992 -0.011757756921088679 0.022618920201161779 0.020429151537888535 -0.1342298632507235 0.10570010171846395 0.064702953522693243 0.048143518172325817 0.0978750482484919 -0.039947685889886453 0.003772976319890015 0.018232772058035304 0.10456061785498538 0.14734947430668729 0.050012424572809827 -0.11833864960542412 0.10537821016322707 0.15362257502280632 0.14429631921022287 0.12718966218543171 -0.034369867305579928 -0.069508568458081205 -0.13031563354713649 0.065835178095074748 0.10005301374674044 0.056051953183401539 0.089968169686091559 0.065125515589922633 -0.037188899816225758 -0.075096874279119319 0.032365347837769703 0.090625526271218212 -0.064156729976069762 0.043268949579207405 -0.031587446645717665 0.10582853421303119 0.079727396199012868 0.046974003963250514 -0.10316493235118034 -0.022470269933861482 0.11540338679526793 -0.10862901257762146 -0.061553837435610395 0.016567044744459001 0.028827122992382818 0.00023760184954924979 0.035722423826276932 0.10733031344595956 0.023844081332584866 -0.11502170662547245 -0.10167672520669341 -0.098637569680003367 0.090183606833738439 0.10664023877275454 0.11854051497642606 -0.001492720143650912 0.077456211879754433 0.097233025008729379 -0.020726200489288873 -0.089076519134847945 0.12057254936288814 -0.021032909783329827 0.09330685438200742 0.11976771746108018 0.12524442939214631 -0.074575002726108286 0.062316204877011651 0.11127764282851872 -0.12530524741978621 0.13998482967706899 -0.062746349198947393 0.15631024684588901 -0.083355976513376895 0.083685174305859228 0.078744831660324241 -0.03064226312520445 0.015289533069667858 -0.090639711790562738 0.020888602524753892 -0.12996312251437547 0.063057337137134045 -0.14461081291983169 0.068013194324377954 0.091509897180983873 -0.026046283858360463 -0.023369510255594653 0.057372841961467975 -0.12913252717205626 -0.028920850891665413 -0.068902967301033416 0.037642910963428262 -0.04085102473181465 0.12210775203383327 0.12484824226634167 -0.016544467940785085 -0.12275464092335084 -0.0022653010318344916 0.1113802828460226 0.050081507666063764 -0.13388163383846569 0.074697672242839463 0.0077764468640655147 0.057565002064901137 -0.049634741838930012 0.04168987725845396 -0.13584029371865541 0.088386312102372702 0.096379944852133359 0.065590400832837736 -0.14712424187800216 0.038398905127706273 -0.097793275501029689 0.037602991198987995 0.089654804583201006 0.14199759560572464 0.10654572020619198 0.051779815236841664 -0.10277275007405533 0.015130317835520062 0.0233877447549132 0.025284382468057854 -0.10487945281511073 0.09496886586275087 0.10887943810123535 -0.082647125734611415 0.0052649066693258072 0.097051070306423112 -0.072252957722574979 0.039646929074752695 -0.092169822935598431 -0.093082112223079647 -0.09764123023261026 -0.13888244378035794 -0.12638999654314348 0.075331913708889503 0.0605922952831583 -0.12686564750126306 0.053407590783259087 -0.071000934920803505 0.12985982040660513 -0.0047788390692923314 -0.0059684839027465859 0.055665535432205551 0.092652849229301282 0.086370924920060266 -0.016790839430650024 -0.034637723449056253 -0.088794614692206661 0.11731632847964536 0.09420552364828684 -0.014519188616985671 0.11440149420986852 0.05739620386389048 -0.096585740608599535 -0.10532045666436836 0.11238831084363779 0.00097966730628355064 -0.04767280387563326 -0.0090742930147808456 0.028968512069368443 0.1230571086898089 0.076321917513034923 -0.036843610003016211 -0.077270130315824276 0.063029711907986175 0.033329207022480788 -0.037321618248914251 0.011431661990768888 0.064926301634177438 0.068210469606583599 0.082870342934807648 -0.015602883004314162 0.15284230768497448 0.048653395685825052 0.06607804037018343 0.15220947348370067 -0.0066654534954304285 0.085876650682879474 0.14701876100220723 0.07522066794181359 0.0026837015289075338 0.12701732377713298 -0.062554964050433343 -0.10584986820248223 -0.096384860623205185 0.089633722891996739 -0.032359244536636821 0.040737120511504736 0.01544119007422669 -0.077537665182058971 0.10467474768145646 -0.029261861429248869 -0.036800100428605785 -0.035685711655106492 -0.06004563845329916 0.13295240422960156 0.063148881176098723 0.10333330539308867 -0.08223306505764244 0.042676781324881369 -0.045081519348602536 -0.059198656572596334 0.13804723404854116 -0.044077028151510503 0.033745009246968376 0.13991486424576688 0.008825022582206507 -0.081877550037427194 -0.07985354242308125 0.065234965956111862 -0.1013875489477882 -0.13583244563556152 -0.11483526118699201 0.0093873013257210671 0.07697742597974859 -0.052324645059986186 0.059207338393671732 -0.097176820202028086 0.071334456614013025 0.050971388851560995 -0.095586930497522746 0.092543465481458614 -0.012270170664121267 -0.12219738261389824 -0.083203994483076651 -0.016664332957691284 0.029306730556163067 0.078753773672621097 -0.091623498197609024 0.14398521441608389 0.14150500742697497 0.060055977603499622 -0.10630337749684816 0.051069598220200831 0.088275807935736972 -0.01009935843259698 0.030341249845189457 -0.12416098112211862 0.13785392844181635 0.060735368555616918 -0.065306379050742866 4.2287757809494691e-05 0.07633906183889845 0.11703584704161393 -0.049142520979741797;0.063135429596396994 0.11330525967744361 -0.10709329772768331 0.089840576731519281 0.15693652050888077 -0.021424657976635324 -0.055817070511520593 0.083100244394583439 0.15768901342404848 -0.065382273511858699 0.041277125325383739 0.13526583169889586 -0.047010651691459612 -0.068504501957597844 -0.14273351946425572 -0.10082265519299108 0.013527361966772693 0.063525816832333742 0.11445948900609131 0.024247285968002765 0.09871323443959272 -0.087972497062061797 -0.075399356065734405 0.043489965402163787 0.0034470245147717456 -0.080693893820522 0.0154202377167588 -0.090463633416726169 0.14541294371550309 0.032138811911175319 0.13255855063939218 -0.10726054891748128 0.0027765511821519462 0.018873419235455741 -0.090441523130248974 0.081791865003685363 0.020162249058224283 -0.048074752112795681 0.076919833359066284 0.13480163803785764 -0.077943498741921732 0.025790682467438777 0.070243754554876706 -0.096829415255505966 0.0053631600463946317 0.038223158731045627 0.13919191723752361 0.035726095684267219 0.10679112470472632 0.099627190508263186 -0.081963128446125244 -0.029584677856945758 0.062919427902518338 -0.097041531190041344 -0.10543308336527789 -0.044401757161462621 0.067049089995280448 -0.02469621865568777 -0.043889425815757749 0.087057625772294395 0.11236621695342494 0.13149420442958187 -0.0067194085666456892 0.062966533701714386 -0.039663675844935624 0.13676652926858657 0.071408513529550022 -0.059632622670983515 0.12596174715312708 -0.067999883156341132 -0.13110995822189225 -0.060023334508106818 0.063619987404957529 -0.0041194319000191866 0.16208910289393824 0.0031303763751351307 0.0073476765021869492 -0.021140043460016879 -0.052310151156264605 -0.088082069150033235 0.041734955408451832 0.031007599145863526 0.11117741026710568 -0.016116938999976266 0.14942632239645612 -0.092192141924340235 -0.013921462813715407 0.070158731365030591 -0.084793132278368238 0.061554321801568251 0.13278406297415471 -0.012173894049319267 -0.090723717698719869 0.13894349031052944 0.11684923853533133 0.13879222371435521 -0.14122798737912029 -0.038198917115370559 0.13245400134228608 -0.042329668841185275 -0.06778187119795917 -0.063308883754123038 -0.11493591246724078 0.044386594473236687 -0.016051528162583706 -0.083819204918672119 0.11783408059237467 -0.10063387425751978 0.041785659122563934 0.11874220730491267 0.061065454519581577 -0.12498239246656685 0.12718291449340802 -0.018964435754983688 0.060334821767136913 -0.06999257173263107 -0.024623328315292084 0.093183179137791824 0.061872027568543826 -0.1184335821872325 0.13841871493332034 0.0086260856515590189 -0.09443974497798048 -0.028910522431048958 -0.035213381058569915 -0.0026886966739725934 -0.035167957443893082 0.14419245799830144 -0.029643668810630307 0.046016629498470039 0.041137033910782772 -0.12318418309122108 0.13248825696361854 -0.0062375006151438291 -0.071209444643534056 -0.15540574927590059 -0.021024279944035093 -0.11647110341677942 0.090357830922023832 -0.008262673005067063 0.059267474045535083 0.051241781617771452 0.016240402531009456 -0.054109665742712976 0.015289732885349057 0.014213940695985109 -0.13035040861978181 0.060967680777945447 0.019378149089714525 -0.098991368535386523 0.04902578492429796 -0.13259143864940073 0.058300938465748686 -0.093975063823212787 0.073308624676054687 -0.0084071547335133768 0.063646830230006751 0.091735724085711734 -0.092692537321879112 0.079870647922109142 0.10275070323832312 -0.0013479574127150328 -0.008674691113685731 -0.077156057219461074 0.054862083406179388 0.083184977047627021 -0.089188933296519307 0.058091532128110315 -0.13841889351931064 -0.05096267929605354 0.0067065315082709409 -0.14669094250071399 -0.015396198837075494 -0.097194200960305177 0.01341328663938743 -0.047749967662914304 0.031514265301531022 0.093020727108397039 0.048456417692360566 -0.089121045422880962 -0.014157402284274465 -0.06161295601873458 0.079072175438258938 -0.08431663181364174 0.033186837760303414 -0.080650168691673643 -0.055142244951108782 0.079310054359911022 0.13102410127136013 0.13138391010097353 -0.11322055717334237 0.08760987385311006 0.01592294303945082 -0.13001732993339879 -0.062450043081965133 0.039876619186333243 -0.042859436710173206 0.030089437342876928 -0.021469049268772966 0.084832695582889098 0.10906921456137637 0.014743894193410425 -0.04068143974404638 0.10170732447858255 0.020463989350862296 -0.12147129547057206 0.119552317886691 -0.071592788621529665 -0.081143181087571917 0.11754259666101811 0.04087474211790125 -0.10810315872691201 0.13794539301830963 0.027152573167175374 -0.1202999228398636 0.10219496556503772 -0.13405029896456999 0.016458084233357095 -0.12302333573450795 -0.056185190945828072 0.14860184893753964 0.034748956806355993 -0.036388871024498615 -0.088157590139973929 -0.060778587182187732 -0.11036468706089801 -0.04243291280302669 0.16172554446613552 0.045237241920055397 0.010202568721358772 0.073298188541972689 -0.023069778055785455 -0.042738525762919186 0.016692764301488323 0.038487453021986966 -0.064991291838660217 -0.13454774141730688 -0.047935588626945448 0.094821161565822792 -0.11841835345340572 0.06833763162237598 -0.024187883717622181 -0.0087873935992661325 0.058039903443240434 -0.022366009500547953 -0.03946693646690206 -0.039812990764656872 0.058486201135615978 0.07897910186153638 -0.0048764312454783569 -0.03240164188818833 -0.068515031072064012 -0.097553894264945512 -0.063687740149037941 -0.075273764755641209 0.0012133520308497902 0.11507603700963596 -0.071218620476125954 0.10605631405011226 -0.11539788651741968 -0.018421622162518778 -0.086739664599068414 0.0019058662636505246 0.0085732972457207984 -0.096701690562317061 0.01485493894339057 -0.13132579032527325 -0.10006544808111641 -0.096704720450251982 -0.012036858893288984 0.11562439447445713 0.055385032867806945 -0.03417936676621431 0.010273770031996796 0.10775476560466449 0.015210385347988985 -0.063051930035785075 0.041272852621913707 0.02645316749133305 0.14692369924980486 0.091543721847115039 0.043115287599187278 0.11329458904664075 -0.10552960550090879 0.14494897841466844 0.13301187276501206 -0.095747101913709373 0.0098700589859954668 0.049718149927419478 -0.10525206480993969 0.11929555098818528 0.025935184044627819 -0.083390170718077347 -0.11077770602672408 0.0097781445844639155;0.040984280620166888 0.14346054669630673 -0.11078368215072545 0.086961913876311248 -0.080371174878724347 -0.061615243423122329 0.097802800797317194 0.049364184023561616 0.11448484135425276 0.14349430678368114 0.086565775923613711 0.052739088251041205 0.030625520277661942 0.11213846766981131 -0.13237791880601354 0.085435113852509348 0.014640282003527419 0.12720873890078907 -0.11042070545911484 0.039905521565920948 -0.10960662840295311 -0.10948512147187919 -0.014617968249606317 -0.10705152485397583 -0.066169041541200749 -0.038048399853506644 -0.068675726467774034 0.021586584483079638 0.15740126448640746 -0.036268768856041876 -0.12242517848669617 -0.11330840031881732 0.12606764238937535 -0.074256582347019526 -0.12543181512172527 0.012407729225320232 0.015235925276766918 0.13613545993908538 -0.076988498074955586 0.063149174172213371 0.0730510354135636 -0.021196620239447041 0.042268283325348599 0.0022636382790567839 -0.10896411225437237 0.046033142964381581 0.082185568866612366 0.0051709778168956607 -0.0072592304787768187 0.06022488617362208 -0.087764909904167188 0.065769171012982713 0.040178680502351627 -0.10268527040490799 0.054972828941940111 -0.0024245015851831796 -0.01873612700499332 -0.084106553504203194 -0.11292674873308026 0.13843661292850135 0.10345715301005917 -0.1457189780469289 -0.041391417941160753 -0.11204187884084295 0.10271832869094866 -0.099381246737270681 0.13536885459958359 0.021939968438421106 -0.044837801556785906 0.04468763635377053 0.0020443346936484265 0.13149830407410709 -0.0045450199647827528 0.052741520968411969 -0.039801027922769412 -0.079691859434049966 -0.07140861011916548 -0.0067376728580143177 0.058483195206796387 0.010965874017479955 -0.10189932725843082 -0.12486462559182746 0.11845596533836582 0.050083039237272753 0.042094100134193804 -0.10014661644349744 -0.10111375134825253 